{"learner":{"attributes":{},"feature_names":["assists","boosts","damageDealt","DBNOs","headshotKills","heals","killPlace","killPoints","kills","killStreaks","longestKill","matchDuration","matchType_crashfpp","matchType_crashtpp","matchType_duo","matchType_duo-fpp","matchType_flarefpp","matchType_flaretpp","matchType_normal-duo","matchType_normal-duo-fpp","matchType_normal-solo","matchType_normal-solo-fpp","matchType_normal-squad","matchType_normal-squad-fpp","matchType_solo","matchType_solo-fpp","matchType_squad","matchType_squad-fpp","maxPlace","numGroups","rankPoints","revives","rideDistance","roadKills","swimDistance","teamKills","vehicleDestroys","walkDistance","weaponsAcquired","winPoints","game_phase","health_used","distance_covered","engagement_density","momentum_score","rolling_damage","rolling_kills","emb_0","emb_1","emb_2","emb_3","emb_4","emb_5","emb_6","emb_7","emb_8","emb_9","emb_10","emb_11","emb_12","emb_13","emb_14","emb_15"],"feature_types":["int","int","float","int","int","int","int","int","int","int","float","int","int","int","int","int","int","int","int","int","int","int","int","int","int","int","int","int","int","int","int","int","float","int","float","int","int","float","int","int","c","int","float","float","float","float","float","float","float","float","float","float","float","float","float","float","float","float","float","float","float","float","float"],"gradient_booster":{"model":{"gbtree_model_param":{"num_parallel_tree":"1","num_trees":"100"},"iteration_indptr":[0,1,2,3,4,5,6,7,8,9,10,11,12,13,14,15,16,17,18,19,20,21,22,23,24,25,26,27,28,29,30,31,32,33,34,35,36,37,38,39,40,41,42,43,44,45,46,47,48,49,50,51,52,53,54,55,56,57,58,59,60,61,62,63,64,65,66,67,68,69,70,71,72,73,74,75,76,77,78,79,80,81,82,83,84,85,86,87,88,89,90,91,92,93,94,95,96,97,98,99,100],"tree_info":[0,0,0,0,0,0,0,0,0,0,0,0,0,0,0,0,0,0,0,0,0,0,0,0,0,0,0,0,0,0,0,0,0,0,0,0,0,0,0,0,0,0,0,0,0,0,0,0,0,0,0,0,0,0,0,0,0,0,0,0,0,0,0,0,0,0,0,0,0,0,0,0,0,0,0,0,0,0,0,0,0,0,0,0,0,0,0,0,0,0,0,0,0,0,0,0,0,0,0,0],"trees":[{"base_weights":[-2.1444057E-8,-2.5961885E-1,1.0167121E-1,-3.6311892E-1,-1.616621E-1,7.3688426E-3,1.471906E-1,-4.4290894E-1,-3.213833E-1,-2.184342E-1,-1.2296624E-1,2.2361692E-2,-1.4949112E-1,1.5623435E-1,-1.5689686E-2,-4.970935E-1,-4.1623688E-1,-2.8507316E-1,-3.8460207E-1,-1.6773395E-1,-2.7552992E-1,-1.5030892E-1,-4.821506E-2,-9.457662E-3,6.8053655E-2,-1.0489621E-1,-2.2819777E-1,1.2302008E-1,1.7728089E-1,1.9204376E-2,-1.24613844E-1,-4.8199385E-1,-5.5492526E-1,-3.9312536E-1,-4.8613873E-1,-3.0518022E-1,-2.0903073E-1,-4.0690497E-1,-2.9845425E-1,-1.921934E-1,-1.0111451E-1,-3.0323157E-1,-1.8603857E-1,-1.0719884E-1,-1.9496417E-1,-1.591959E-2,-8.2444966E-2,-4.9158424E-2,2.0425348E-2,3.222673E-2,9.470921E-2,-1.0185653E-1,-1.4915125E-1,-2.0342532E-1,-3.1235248E-1,9.294783E-2,1.4734292E-1,2.0395239E-1,1.5704206E-1,7.384233E-2,-1.9330526E-2,-3.5060618E-2,-1.5291636E-1,-1.4263104E-1,-1.760673E-1,-1.7278807E-1,-1.5356758E-1,-1.21056914E-1,-9.216575E-2,-1.5110694E-1,-1.23716675E-1,-1.0281544E-1,-8.4092215E-2,-7.269596E-2,-5.024809E-2,-1.322248E-1,-1.1206386E-1,-1.03435665E-1,-7.922869E-2,-5.53575E-2,-9.205435E-2,-3.8424335E-2,-2.2065084E-2,-9.8456524E-2,-6.632514E-2,-4.9326096E-2,-9.2480585E-2,-2.9590288E-2,-6.01657E-2,-7.562486E-2,-3.7883006E-2,-1.3476841E-2,2.7294597E-3,-3.859236E-2,-4.449115E-3,-2.0473748E-2,6.741162E-4,1.3316568E-2,-3.4599623E-3,1.9895674E-3,2.3299009E-2,2.311264E-2,3.9713174E-2,-1.9969547E-2,-3.8699016E-2,-4.5470905E-2,-6.881404E-2,-8.604861E-2,-1.1370493E-1,3.6151722E-2,1.5551615E-2,5.1469393E-2,3.903527E-2,6.6855595E-2,5.6320794E-2,3.394884E-2,5.1703185E-2,1.57661E-2,3.404348E-2,9.3919586E-4,-1.6649341E-2,-5.537381E-3,-2.8285937E-2,-3.743122E-2,-7.0518054E-2],"categories":[],"categories_nodes":[],"categories_segments":[],"categories_sizes":[],"default_left":[0,0,0,0,0,0,0,0,0,0,0,0,0,0,0,0,0,0,0,0,0,0,0,0,0,0,0,0,0,0,0,0,0,0,0,0,0,0,0,0,0,0,0,0,0,0,0,0,0,0,0,0,0,0,0,0,0,0,0,0,0,0,0,0,0,0,0,0,0,0,0,0,0,0,0,0,0,0,0,0,0,0,0,0,0,0,0,0,0,0,0,0,0,0,0,0,0,0,0,0,0,0,0,0,0,0,0,0,0,0,0,0,0,0,0,0,0,0,0,0,0,0,0,0,0],"id":0,"left_children":[1,3,5,7,9,11,13,15,17,19,21,23,25,27,29,31,33,35,37,39,41,43,45,47,49,51,53,55,57,59,61,63,65,67,69,71,73,75,77,79,81,83,85,87,89,91,93,95,97,99,101,103,-1,105,107,109,111,113,115,117,119,121,123,-1,-1,-1,-1,-1,-1,-1,-1,-1,-1,-1,-1,-1,-1,-1,-1,-1,-1,-1,-1,-1,-1,-1,-1,-1,-1,-1,-1,-1,-1,-1,-1,-1,-1,-1,-1,-1,-1,-1,-1,-1,-1,-1,-1,-1,-1,-1,-1,-1,-1,-1,-1,-1,-1,-1,-1,-1,-1,-1,-1,-1,-1],"loss_changes":[7.705294E3,8.328013E2,9.004375E2,1.3287158E2,9.269324E1,1.606086E2,2.0840381E2,1.9614258E1,6.009839E1,4.947162E1,5.129666E1,9.062734E1,2.0888138E1,9.367407E1,2.8291794E1,3.6785889E0,1.466687E1,2.5415405E1,1.8258179E1,1.474852E1,1.9885132E1,3.535843E1,7.4318724E0,4.3595657E1,2.4434097E1,4.4864006E0,4.4269485E0,3.8015503E1,4.4254883E1,1.1872058E1,4.57209E0,2.190918E0,5.4608154E-1,6.0545654E0,2.744812E0,1.2206909E1,4.7823944E0,8.411255E0,3.0465546E0,5.7708282E0,1.8012924E0,1.2517395E1,4.980446E0,7.458229E0,3.538022E1,2.5116968E0,1.0193325E1,1.5484425E1,1.6056896E1,1.2696501E1,9.753784E0,3.6090813E0,0E0,2.2088547E0,7.216263E-1,2.633435E1,1.1969543E1,1.080542E1,3.1303589E1,1.961771E0,2.686647E0,4.259985E-1,3.1427193E0,0E0,0E0,0E0,0E0,0E0,0E0,0E0,0E0,0E0,0E0,0E0,0E0,0E0,0E0,0E0,0E0,0E0,0E0,0E0,0E0,0E0,0E0,0E0,0E0,0E0,0E0,0E0,0E0,0E0,0E0,0E0,0E0,0E0,0E0,0E0,0E0,0E0,0E0,0E0,0E0,0E0,0E0,0E0,0E0,0E0,0E0,0E0,0E0,0E0,0E0,0E0,0E0,0E0,0E0,0E0,0E0,0E0,0E0,0E0,0E0,0E0,0E0],"parents":[2147483647,0,0,1,1,2,2,3,3,4,4,5,5,6,6,7,7,8,8,9,9,10,10,11,11,12,12,13,13,14,14,15,15,16,16,17,17,18,18,19,19,20,20,21,21,22,22,23,23,24,24,25,25,26,26,27,27,28,28,29,29,30,30,31,31,32,32,33,33,34,34,35,35,36,36,37,37,38,38,39,39,40,40,41,41,42,42,43,43,44,44,45,45,46,46,47,47,48,48,49,49,50,50,51,51,53,53,54,54,55,55,56,56,57,57,58,58,59,59,60,60,61,61,62,62],"right_children":[2,4,6,8,10,12,14,16,18,20,22,24,26,28,30,32,34,36,38,40,42,44,46,48,50,52,54,56,58,60,62,64,66,68,70,72,74,76,78,80,82,84,86,88,90,92,94,96,98,100,102,104,-1,106,108,110,112,114,116,118,120,122,124,-1,-1,-1,-1,-1,-1,-1,-1,-1,-1,-1,-1,-1,-1,-1,-1,-1,-1,-1,-1,-1,-1,-1,-1,-1,-1,-1,-1,-1,-1,-1,-1,-1,-1,-1,-1,-1,-1,-1,-1,-1,-1,-1,-1,-1,-1,-1,-1,-1,-1,-1,-1,-1,-1,-1,-1,-1,-1,-1,-1,-1,-1],"split_conditions":[1.326E3,6.055E2,2.154E3,2.574E2,9.173E2,5.3E1,5E1,1.461E2,1.551E3,1.551E3,3.9E1,3E0,5.9E1,2.731E3,5.6E1,1.551E3,1.551E3,3.4E1,4E1,3.7E1,2.785E3,1.668E3,1.75E3,1.684E3,1.768E3,1E0,6.5E1,3E0,1.551E3,1.517E3,1.517E3,7.9E1,1E0,1E0,3.2E1,3.657E2,4.424E2,4.424E2,4.264E2,6.3E1,8.105E2,3.6E1,6E1,5.7E1,3.385E3,1.214E3,3.885E3,3.8E1,1.551E3,4.4E1,4.3E1,1.551E3,-1.4915125E-1,1.719E3,6.9E1,1.668E3,1.4E1,1.4E1,4.308E3,2.803E3,5.3E1,6E1,6.1E1,-1.4263104E-1,-1.760673E-1,-1.7278807E-1,-1.5356758E-1,-1.21056914E-1,-9.216575E-2,-1.5110694E-1,-1.23716675E-1,-1.0281544E-1,-8.4092215E-2,-7.269596E-2,-5.024809E-2,-1.322248E-1,-1.1206386E-1,-1.03435665E-1,-7.922869E-2,-5.53575E-2,-9.205435E-2,-3.8424335E-2,-2.2065084E-2,-9.8456524E-2,-6.632514E-2,-4.9326096E-2,-9.2480585E-2,-2.9590288E-2,-6.01657E-2,-7.562486E-2,-3.7883006E-2,-1.3476841E-2,2.7294597E-3,-3.859236E-2,-4.449115E-3,-2.0473748E-2,6.741162E-4,1.3316568E-2,-3.4599623E-3,1.9895674E-3,2.3299009E-2,2.311264E-2,3.9713174E-2,-1.9969547E-2,-3.8699016E-2,-4.5470905E-2,-6.881404E-2,-8.604861E-2,-1.1370493E-1,3.6151722E-2,1.5551615E-2,5.1469393E-2,3.903527E-2,6.6855595E-2,5.6320794E-2,3.394884E-2,5.1703185E-2,1.57661E-2,3.404348E-2,9.3919586E-4,-1.6649341E-2,-5.537381E-3,-2.8285937E-2,-3.743122E-2,-7.0518054E-2],"split_indices":[37,37,37,42,37,6,6,37,11,11,29,1,6,37,6,11,11,29,28,29,42,11,11,37,37,23,6,1,11,11,11,6,41,15,28,42,42,42,42,6,42,29,6,6,42,42,42,29,11,28,28,11,0,11,6,11,6,6,42,37,6,6,6,0,0,0,0,0,0,0,0,0,0,0,0,0,0,0,0,0,0,0,0,0,0,0,0,0,0,0,0,0,0,0,0,0,0,0,0,0,0,0,0,0,0,0,0,0,0,0,0,0,0,0,0,0,0,0,0,0,0,0,0,0,0],"split_type":[0,0,0,0,0,0,0,0,0,0,0,0,0,0,0,0,0,0,0,0,0,0,0,0,0,0,0,0,0,0,0,0,0,0,0,0,0,0,0,0,0,0,0,0,0,0,0,0,0,0,0,0,0,0,0,0,0,0,0,0,0,0,0,0,0,0,0,0,0,0,0,0,0,0,0,0,0,0,0,0,0,0,0,0,0,0,0,0,0,0,0,0,0,0,0,0,0,0,0,0,0,0,0,0,0,0,0,0,0,0,0,0,0,0,0,0,0,0,0,0,0,0,0,0,0],"sum_hessian":[2.91912E5,8.2147E4,2.09765E5,3.9942E4,4.2205E4,6.829E4,1.41475E5,1.3714E4,2.6228E4,1.7105E4,2.51E4,6.2333E4,5.957E3,1.34033E5,7.442E3,4.518E3,9.196E3,1.6663E4,9.565E3,9.062E3,8.043E3,1.8377E4,6.723E3,3.6745E4,2.5588E4,3.804E3,2.153E3,5.1991E4,8.2042E4,5.637E3,1.805E3,3.59E3,9.28E2,6.916E3,2.28E3,1.3176E4,3.487E3,7.595E3,1.97E3,6.627E3,2.435E3,6.14E3,1.903E3,9.352E3,9.025E3,3.46E3,3.263E3,1.578E4,2.0965E4,1.0917E4,1.4671E4,3.776E3,2.8E1,1.666E3,4.87E2,2.325E4,2.8741E4,3.5392E4,4.665E4,2.331E3,3.306E3,4.34E2,1.371E3,3.384E3,2.06E2,6.15E2,3.13E2,6.166E3,7.5E2,1.837E3,4.43E2,5.246E3,7.93E3,1.933E3,1.554E3,3.764E3,3.831E3,8.35E2,1.135E3,6.214E3,4.13E2,1.229E3,1.206E3,4.707E3,1.433E3,1.619E3,2.84E2,8.568E3,7.84E2,4.926E3,4.099E3,1.602E3,1.858E3,1.938E3,1.325E3,1.1507E4,4.273E3,1.1981E4,8.984E3,6.984E3,3.933E3,9.989E3,4.682E3,1.643E3,2.133E3,5.58E2,1.108E3,3.56E2,1.31E2,1.3918E4,9.332E3,1.1941E4,1.68E4,1.6338E4,1.9054E4,1.2064E4,3.4586E4,1.518E3,8.13E2,2.04E3,1.266E3,3.4E2,9.4E1,1.023E3,3.48E2],"tree_param":{"num_deleted":"0","num_feature":"63","num_nodes":"125","size_leaf_vector":"1"}},{"base_weights":[-9.751754E-6,-1.7370991E-1,7.4706465E-2,-2.5298166E-1,-1.0407418E-1,1.9043012E-2,1.0876541E-1,-3.0238602E-1,-2.1821266E-1,-9.339875E-2,-2.4232337E-1,3.0527264E-2,-8.377927E-2,1.2695949E-1,6.803765E-2,-3.3848664E-1,-2.782134E-1,-1.9107191E-1,-2.6556277E-1,-1.2458171E-1,-5.8527783E-2,-2.1342617E-1,-3.3297098E-1,1.46355415E-2,8.004469E-2,-5.3496826E-2,-1.4766195E-1,1.1158012E-1,1.4682017E-1,7.9160914E-2,-3.0809596E-2,-3.5726145E-1,-3.0768728E-1,-2.5940877E-1,-3.29775E-1,-2.0316258E-1,-1.2369363E-1,-3.0006227E-1,-2.4178253E-1,-9.2146136E-2,-1.60328E-1,-7.78377E-2,-1.7391615E-2,-1.7446464E-1,-2.3517962E-1,-3.0422658E-1,-3.9740244E-1,-1.1333842E-2,4.1021083E-2,6.8085305E-2,1.2246405E-1,-3.660623E-1,-5.0681457E-2,-1.2569611E-1,-1.9932672E-1,1.2798674E-1,9.400847E-2,1.3519043E-1,1.6296767E-1,1.06410705E-1,2.8417772E-2,-6.6269175E-3,-9.914147E-2,-1.19491346E-1,-1.0376735E-1,-9.712084E-2,-7.867649E-2,-7.639691E-2,-1.1353298E-1,-1.05931886E-1,-8.840366E-2,-5.941074E-2,-8.932248E-2,-4.5423027E-2,-3.3452265E-2,-8.7851316E-2,-1.1815554E-1,-7.7351525E-2,-5.777665E-2,-3.7405394E-2,-2.0516526E-2,-6.091253E-2,-3.2750502E-2,-3.5198E-2,-1.7154995E-2,-1.5439669E-2,1.953746E-3,-4.6333417E-2,-5.9065044E-2,-1.3885169E-1,-6.909842E-2,-1.1353756E-1,-8.813331E-2,-1.1163101E-1,-1.3092156E-1,1.732925E-2,-6.4632087E-3,2.0679262E-2,7.7126925E-3,1.400653E-2,2.5143204E-2,3.7542827E-2,-1.4687986E-2,-1.1348195E-1,-1.8263819E-2,-6.466677E-3,-2.2130212E-2,-1.2971818E-1,-3.668305E-2,-4.147984E-2,-6.457927E-2,3.3858407E-2,4.5550905E-2,9.328733E-3,3.276557E-2,3.697477E-2,4.422033E-2,4.5344166E-2,5.205666E-2,4.1999683E-2,2.0027066E-2,1.8578358E-2,-9.901774E-3,1.0095286E-2,-9.06402E-3,-2.6903318E-2,-6.905915E-2],"categories":[],"categories_nodes":[],"categories_segments":[],"categories_sizes":[],"default_left":[0,0,0,0,0,0,0,0,0,0,0,0,0,0,0,0,0,0,0,0,0,0,0,0,0,0,0,0,0,0,0,0,0,0,0,0,0,0,0,0,0,0,0,0,0,0,0,0,0,0,0,0,0,0,0,0,0,0,0,0,0,0,0,0,0,0,0,0,0,0,0,0,0,0,0,0,0,0,0,0,0,0,0,0,0,0,0,0,0,0,0,0,0,0,0,0,0,0,0,0,0,0,0,0,0,0,0,0,0,0,0,0,0,0,0,0,0,0,0,0,0,0,0,0,0,0,0],"id":1,"left_children":[1,3,5,7,9,11,13,15,17,19,21,23,25,27,29,31,33,35,37,39,41,43,45,47,49,51,53,55,57,59,61,63,65,67,69,71,73,75,77,79,81,83,85,87,89,91,93,95,97,99,101,103,105,107,109,111,113,115,117,119,121,123,125,-1,-1,-1,-1,-1,-1,-1,-1,-1,-1,-1,-1,-1,-1,-1,-1,-1,-1,-1,-1,-1,-1,-1,-1,-1,-1,-1,-1,-1,-1,-1,-1,-1,-1,-1,-1,-1,-1,-1,-1,-1,-1,-1,-1,-1,-1,-1,-1,-1,-1,-1,-1,-1,-1,-1,-1,-1,-1,-1,-1,-1,-1,-1,-1],"loss_changes":[3.7885237E3,4.846372E2,3.8696692E2,7.046094E1,6.896243E1,9.1498535E1,9.382617E1,1.4703125E1,3.0923096E1,4.71774E1,8.704132E0,5.4846954E1,1.5052368E1,2.6718994E1,4.299745E1,3.8198853E0,9.767578E0,1.2458496E1,7.129883E0,2.65448E1,1.6272217E1,2.114296E0,1.375557E0,3.6157265E1,8.582436E0,4.630415E0,2.8154984E0,1.421051E1,7.150818E0,4.8598907E1,6.5364265E0,1.8297119E0,1.7969818E0,4.1186523E0,2.1166382E0,6.2402344E0,7.714386E-1,2.309082E0,4.059143E0,9.277245E0,2.3787964E1,1.1364662E1,5.3320985E0,3.8026428E-1,1.6926346E0,3.255043E-1,8.034897E-2,1.8763403E1,1.1183891E1,4.4415817E0,1.7157097E0,1.521182E-1,3.5197535E0,1.7917633E0,6.952362E-1,9.185211E0,2.2794922E1,3.2203064E0,1.9682922E0,3.0448608E1,2.5282246E1,2.7779057E0,1.2618036E0,0E0,0E0,0E0,0E0,0E0,0E0,0E0,0E0,0E0,0E0,0E0,0E0,0E0,0E0,0E0,0E0,0E0,0E0,0E0,0E0,0E0,0E0,0E0,0E0,0E0,0E0,0E0,0E0,0E0,0E0,0E0,0E0,0E0,0E0,0E0,0E0,0E0,0E0,0E0,0E0,0E0,0E0,0E0,0E0,0E0,0E0,0E0,0E0,0E0,0E0,0E0,0E0,0E0,0E0,0E0,0E0,0E0,0E0,0E0,0E0,0E0,0E0,0E0,0E0],"parents":[2147483647,0,0,1,1,2,2,3,3,4,4,5,5,6,6,7,7,8,8,9,9,10,10,11,11,12,12,13,13,14,14,15,15,16,16,17,17,18,18,19,19,20,20,21,21,22,22,23,23,24,24,25,25,26,26,27,27,28,28,29,29,30,30,31,31,32,32,33,33,34,34,35,35,36,36,37,37,38,38,39,39,40,40,41,41,42,42,43,43,44,44,45,45,46,46,47,47,48,48,49,49,50,50,51,51,52,52,53,53,54,54,55,55,56,56,57,57,58,58,59,59,60,60,61,61,62,62],"right_children":[2,4,6,8,10,12,14,16,18,20,22,24,26,28,30,32,34,36,38,40,42,44,46,48,50,52,54,56,58,60,62,64,66,68,70,72,74,76,78,80,82,84,86,88,90,92,94,96,98,100,102,104,106,108,110,112,114,116,118,120,122,124,126,-1,-1,-1,-1,-1,-1,-1,-1,-1,-1,-1,-1,-1,-1,-1,-1,-1,-1,-1,-1,-1,-1,-1,-1,-1,-1,-1,-1,-1,-1,-1,-1,-1,-1,-1,-1,-1,-1,-1,-1,-1,-1,-1,-1,-1,-1,-1,-1,-1,-1,-1,-1,-1,-1,-1,-1,-1,-1,-1,-1,-1,-1,-1,-1],"split_conditions":[1.404E3,6.675E2,2.309E3,2.953E2,6.1E1,5.1E1,2.6E1,1.771E2,1.551E3,2E0,6.9E1,4E0,5.8E1,4E0,5.2E1,1E0,1.517E3,1E0,2E0,1.7E3,4.5E1,1.75E3,7.4E1,1.876E3,6E0,2.2E1,6.3E1,1.551E3,3.193E3,1E0,5.7E1,8.295E1,3E1,7.4E1,2E0,6.7E1,3.891E2,7.3E1,3.2E1,1.043E3,2.3252E3,9.992E2,1.038E3,6.4E1,2.5E1,2.6E1,1E0,1E0,1.5E1,1.902E3,1E0,2.5E1,1.551E3,2.3E1,1.473E3,2.956E3,3.701E3,1E0,1E0,4.5E1,2.9E1,1.551E3,6.5E1,-1.19491346E-1,-1.0376735E-1,-9.712084E-2,-7.867649E-2,-7.639691E-2,-1.1353298E-1,-1.05931886E-1,-8.840366E-2,-5.941074E-2,-8.932248E-2,-4.5423027E-2,-3.3452265E-2,-8.7851316E-2,-1.1815554E-1,-7.7351525E-2,-5.777665E-2,-3.7405394E-2,-2.0516526E-2,-6.091253E-2,-3.2750502E-2,-3.5198E-2,-1.7154995E-2,-1.5439669E-2,1.953746E-3,-4.6333417E-2,-5.9065044E-2,-1.3885169E-1,-6.909842E-2,-1.1353756E-1,-8.813331E-2,-1.1163101E-1,-1.3092156E-1,1.732925E-2,-6.4632087E-3,2.0679262E-2,7.7126925E-3,1.400653E-2,2.5143204E-2,3.7542827E-2,-1.4687986E-2,-1.1348195E-1,-1.8263819E-2,-6.466677E-3,-2.2130212E-2,-1.2971818E-1,-3.668305E-2,-4.147984E-2,-6.457927E-2,3.3858407E-2,4.5550905E-2,9.328733E-3,3.276557E-2,3.697477E-2,4.422033E-2,4.5344166E-2,5.205666E-2,4.1999683E-2,2.0027066E-2,1.8578358E-2,-9.901774E-3,1.0095286E-2,-9.06402E-3,-2.6903318E-2,-6.905915E-2],"split_indices":[37,42,37,37,6,6,6,37,11,1,6,1,6,1,6,41,11,15,41,11,28,11,6,37,1,29,6,11,37,8,6,37,29,6,41,6,37,6,28,42,42,37,37,6,28,29,26,8,6,37,23,28,11,29,11,37,42,0,0,6,6,11,6,0,0,0,0,0,0,0,0,0,0,0,0,0,0,0,0,0,0,0,0,0,0,0,0,0,0,0,0,0,0,0,0,0,0,0,0,0,0,0,0,0,0,0,0,0,0,0,0,0,0,0,0,0,0,0,0,0,0,0,0,0,0,0,0],"split_type":[0,0,0,0,0,0,0,0,0,0,0,0,0,0,0,0,0,0,0,0,0,0,0,0,0,0,0,0,0,0,0,0,0,0,0,0,0,0,0,0,0,0,0,0,0,0,0,0,0,0,0,0,0,0,0,0,0,0,0,0,0,0,0,0,0,0,0,0,0,0,0,0,0,0,0,0,0,0,0,0,0,0,0,0,0,0,0,0,0,0,0,0,0,0,0,0,0,0,0,0,0,0,0,0,0,0,0,0,0,0,0,0,0,0,0,0,0,0,0,0,0,0,0,0,0,0,0],"sum_hessian":[2.91912E5,8.7798E4,2.04114E5,4.1057E4,4.6741E4,7.7483E4,1.26631E5,1.6956E4,2.4101E4,4.3392E4,3.349E3,6.9699E4,7.784E3,8.7528E4,3.9103E4,6.795E3,1.0161E4,1.5323E4,8.778E3,2.2906E4,2.0486E4,2.542E3,8.07E2,5.2766E4,1.6933E4,5.282E3,2.502E3,4.9333E4,3.8195E4,3.5148E4,3.955E3,4.215E3,2.58E3,7.45E3,2.711E3,1.299E4,2.333E3,3.577E3,5.201E3,1.2011E4,1.0895E4,1.3941E4,6.545E3,9.14E2,1.628E3,5.62E2,2.45E2,2.6593E4,2.6173E4,1.3211E4,3.722E3,4.6E1,5.236E3,1.758E3,7.44E2,2.5509E4,2.3824E4,2.2209E4,1.5986E4,2.2867E4,1.2281E4,2.922E3,1.033E3,9.07E2,3.308E3,1.902E3,6.78E2,7.167E3,2.83E2,1.623E3,1.088E3,1.2325E4,6.65E2,7.09E2,1.624E3,3.325E3,2.52E2,3.918E3,1.283E3,5.067E3,6.944E3,5.936E3,4.959E3,4.786E3,9.155E3,2.698E3,3.847E3,4.87E2,4.27E2,3.2E1,1.596E3,6.5E1,4.97E2,1.55E2,9E1,3.423E3,2.317E4,9.271E3,1.6902E4,5.598E3,7.613E3,3.665E3,5.7E1,4.4E1,2E0,2.316E3,2.92E3,1.8E1,1.74E3,1.56E2,5.88E2,1.5613E4,9.896E3,4.639E3,1.9185E4,1.1234E4,1.0975E4,7.548E3,8.438E3,1.2379E4,1.0488E4,7.946E3,4.335E3,1.079E3,1.843E3,9.65E2,6.8E1],"tree_param":{"num_deleted":"0","num_feature":"63","num_nodes":"127","size_leaf_vector":"1"}},{"base_weights":[-1.4989787E-5,-1.360698E-1,4.723678E-2,-1.8941191E-1,-9.417426E-2,-6.3029197E-3,7.021127E-2,-2.1216987E-1,-1.5797123E-1,-1.1052909E-1,-5.236373E-2,1.5060733E-2,-4.0583897E-2,7.626583E-2,-7.0901285E-4,-2.4261498E-1,-1.944034E-1,-1.4095542E-1,-1.9274731E-1,-8.583904E-2,-1.4089821E-1,-8.029506E-2,-2.9753188E-2,5.727425E-3,7.9005115E-2,-1.0466853E-2,-8.863114E-2,5.260582E-2,8.783373E-2,3.9587718E-2,-2.7678678E-2,-2.2707784E-1,-2.7117923E-1,-1.7978086E-1,-2.2711644E-1,-1.5277623E-1,-9.9500395E-2,-1.8592997E-1,-2.9447484E-1,-1.133305E-1,-6.30979E-2,-1.592748E-1,-7.0948504E-2,-5.7595424E-2,-1.196356E-1,-2.4069889E-2,-1.1710217E-1,3.0828064E-2,-4.0067922E-2,-5.5553183E-2,8.317372E-2,7.404201E-2,-6.329609E-2,-5.7896238E-2,-1.4277993E-1,2.0382846E-2,6.2141225E-2,1.0572184E-1,7.477418E-2,5.3209677E-2,-8.293555E-3,-9.98795E-3,-7.437422E-2,-6.4051054E-2,-8.1063434E-2,-7.25192E-2,-8.781636E-2,-4.9710717E-2,-6.341062E-2,-7.6282494E-2,-6.313864E-2,-5.6059454E-2,-4.247418E-2,-4.1551895E-2,-2.7451757E-2,-5.9788916E-2,-4.3064363E-2,-7.593905E-2,-9.526324E-2,-3.7759602E-2,-2.5539277E-2,-2.5289195E-2,-1.1808114E-2,-4.5309737E-2,-6.9537446E-2,-1.413954E-2,-4.1761916E-2,-2.1711033E-2,-1.1239559E-2,-4.0452223E-2,-2.9387115E-2,-9.342019E-3,1.0092772E-2,-2.9821321E-2,-5.474883E-2,4.5198877E-3,1.8771747E-2,-2.6542835E-2,-1.4874426E-3,-2.0281602E-2,4.3839652E-2,1.7590081E-2,3.1992935E-2,-3.283467E-2,2.4651114E-2,-9.269845E-3,-3.1611785E-2,-9.404855E-3,-2.7898664E-2,-3.1072846E-2,-5.7764318E-2,1.2982972E-2,-4.750736E-3,1.5776103E-2,2.5627373E-2,3.664104E-2,2.8306892E-2,2.533375E-2,1.246197E-2,1.1877931E-2,2.5184829E-2,-4.380815E-3,1.3103484E-2,-1.0150463E-1,-2.4224147E-3,-1.1943457E-1,-2.1452796E-2],"categories":[],"categories_nodes":[],"categories_segments":[],"categories_sizes":[],"default_left":[0,0,0,0,0,0,0,0,0,0,0,0,0,0,0,0,0,0,0,0,0,0,0,0,0,0,0,0,0,0,0,0,0,0,0,0,0,0,0,0,0,0,0,0,0,0,0,0,0,0,0,0,0,0,0,0,0,0,0,0,0,0,0,0,0,0,0,0,0,0,0,0,0,0,0,0,0,0,0,0,0,0,0,0,0,0,0,0,0,0,0,0,0,0,0,0,0,0,0,0,0,0,0,0,0,0,0,0,0,0,0,0,0,0,0,0,0,0,0,0,0,0,0,0,0,0,0],"id":2,"left_children":[1,3,5,7,9,11,13,15,17,19,21,23,25,27,29,31,33,35,37,39,41,43,45,47,49,51,53,55,57,59,61,63,65,67,69,71,73,75,77,79,81,83,85,87,89,91,93,95,97,99,101,103,105,107,109,111,113,115,117,119,121,123,125,-1,-1,-1,-1,-1,-1,-1,-1,-1,-1,-1,-1,-1,-1,-1,-1,-1,-1,-1,-1,-1,-1,-1,-1,-1,-1,-1,-1,-1,-1,-1,-1,-1,-1,-1,-1,-1,-1,-1,-1,-1,-1,-1,-1,-1,-1,-1,-1,-1,-1,-1,-1,-1,-1,-1,-1,-1,-1,-1,-1,-1,-1,-1,-1],"loss_changes":[1.8766656E3,1.6814612E2,2.6650983E2,2.3651123E1,2.8815186E1,4.7646942E1,6.509955E1,1.0337585E1,8.199829E0,2.2704315E1,7.483284E0,2.3920391E1,3.614326E1,3.822644E1,1.2962145E1,3.0765991E0,5.7610474E0,4.5612183E0,3.1111298E0,1.0441597E1,1.7450104E1,4.7278824E0,3.2497935E0,4.0207035E1,2.8681278E0,6.855766E1,1.6008553E1,1.409301E1,2.1908081E1,3.1194382E0,5.901586E0,2.6274567E0,1.5063019E0,3.6947632E0,1.6394653E0,2.74617E0,6.3438034E-1,2.3965607E0,1.9145203E-1,2.66333E0,4.6006584E0,6.3945007E0,4.5908566E0,9.978018E-1,6.259327E-1,2.5117009E0,4.447894E-1,1.1303926E1,2.1047417E1,3.842138E-1,2.84581E0,8.819176E0,1.2877022E1,5.7190933E0,6.7776413E0,8.68717E0,7.8694916E0,7.3738403E0,1.7427338E1,1.5550127E0,3.4821048E-1,3.2533906E0,1.7921886E0,0E0,0E0,0E0,0E0,0E0,0E0,0E0,0E0,0E0,0E0,0E0,0E0,0E0,0E0,0E0,0E0,0E0,0E0,0E0,0E0,0E0,0E0,0E0,0E0,0E0,0E0,0E0,0E0,0E0,0E0,0E0,0E0,0E0,0E0,0E0,0E0,0E0,0E0,0E0,0E0,0E0,0E0,0E0,0E0,0E0,0E0,0E0,0E0,0E0,0E0,0E0,0E0,0E0,0E0,0E0,0E0,0E0,0E0,0E0,0E0,0E0,0E0,0E0,0E0],"parents":[2147483647,0,0,1,1,2,2,3,3,4,4,5,5,6,6,7,7,8,8,9,9,10,10,11,11,12,12,13,13,14,14,15,15,16,16,17,17,18,18,19,19,20,20,21,21,22,22,23,23,24,24,25,25,26,26,27,27,28,28,29,29,30,30,31,31,32,32,33,33,34,34,35,35,36,36,37,37,38,38,39,39,40,40,41,41,42,42,43,43,44,44,45,45,46,46,47,47,48,48,49,49,50,50,51,51,52,52,53,53,54,54,55,55,56,56,57,57,58,58,59,59,60,60,61,61,62,62],"right_children":[2,4,6,8,10,12,14,16,18,20,22,24,26,28,30,32,34,36,38,40,42,44,46,48,50,52,54,56,58,60,62,64,66,68,70,72,74,76,78,80,82,84,86,88,90,92,94,96,98,100,102,104,106,108,110,112,114,116,118,120,122,124,126,-1,-1,-1,-1,-1,-1,-1,-1,-1,-1,-1,-1,-1,-1,-1,-1,-1,-1,-1,-1,-1,-1,-1,-1,-1,-1,-1,-1,-1,-1,-1,-1,-1,-1,-1,-1,-1,-1,-1,-1,-1,-1,-1,-1,-1,-1,-1,-1,-1,-1,-1,-1,-1,-1,-1,-1,-1,-1,-1,-1,-1,-1,-1,-1],"split_conditions":[1.222E3,4.978E2,2.044E3,2E0,3.1E1,2.8E1,4.8E1,2.037E2,1.551E3,1.75E3,9.754E2,6.12E3,1E0,2.575E3,1.551E3,3.7E1,1.668E3,4.3E1,7.3E1,8.746E2,4.226E3,1.668E3,5.6E1,1.668E3,1.8E1,4.9E1,3.2E1,2E0,1.4E1,5.4E1,5.5E1,1.473E3,1E0,3.5E1,3E0,2.318E2,2.182E2,4.1E1,7.6E1,4E0,4E0,6.5E1,5.5E1,4E0,5E0,4E0,6.5E1,3.6E1,3.023E3,2.32E1,7.567E3,2.4E1,5.6E1,1.551E3,1.551E3,1.743E3,3.8E1,2E0,2E0,3.13E3,3.039E3,2.1E1,2.1E1,-6.4051054E-2,-8.1063434E-2,-7.25192E-2,-8.781636E-2,-4.9710717E-2,-6.341062E-2,-7.6282494E-2,-6.313864E-2,-5.6059454E-2,-4.247418E-2,-4.1551895E-2,-2.7451757E-2,-5.9788916E-2,-4.3064363E-2,-7.593905E-2,-9.526324E-2,-3.7759602E-2,-2.5539277E-2,-2.5289195E-2,-1.1808114E-2,-4.5309737E-2,-6.9537446E-2,-1.413954E-2,-4.1761916E-2,-2.1711033E-2,-1.1239559E-2,-4.0452223E-2,-2.9387115E-2,-9.342019E-3,1.0092772E-2,-2.9821321E-2,-5.474883E-2,4.5198877E-3,1.8771747E-2,-2.6542835E-2,-1.4874426E-3,-2.0281602E-2,4.3839652E-2,1.7590081E-2,3.1992935E-2,-3.283467E-2,2.4651114E-2,-9.269845E-3,-3.1611785E-2,-9.404855E-3,-2.7898664E-2,-3.1072846E-2,-5.7764318E-2,1.2982972E-2,-4.750736E-3,1.5776103E-2,2.5627373E-2,3.664104E-2,2.8306892E-2,2.533375E-2,1.246197E-2,1.1877931E-2,2.5184829E-2,-4.380815E-3,1.3103484E-2,-1.0150463E-1,-2.4224147E-3,-1.1943457E-1,-2.1452796E-2],"split_indices":[37,37,37,41,29,6,6,37,11,11,42,42,8,37,11,6,11,29,6,42,42,11,6,11,29,6,6,1,6,6,6,11,8,6,38,42,42,29,6,41,41,6,6,41,41,1,6,28,42,44,42,28,6,11,11,11,29,3,8,42,37,29,28,0,0,0,0,0,0,0,0,0,0,0,0,0,0,0,0,0,0,0,0,0,0,0,0,0,0,0,0,0,0,0,0,0,0,0,0,0,0,0,0,0,0,0,0,0,0,0,0,0,0,0,0,0,0,0,0,0,0,0,0,0,0,0,0],"split_type":[0,0,0,0,0,0,0,0,0,0,0,0,0,0,0,0,0,0,0,0,0,0,0,0,0,0,0,0,0,0,0,0,0,0,0,0,0,0,0,0,0,0,0,0,0,0,0,0,0,0,0,0,0,0,0,0,0,0,0,0,0,0,0,0,0,0,0,0,0,0,0,0,0,0,0,0,0,0,0,0,0,0,0,0,0,0,0,0,0,0,0,0,0,0,0,0,0,0,0,0,0,0,0,0,0,0,0,0,0,0,0,0,0,0,0,0,0,0,0,0,0,0,0,0,0,0,0],"sum_hessian":[2.91912E5,7.5247E4,2.16665E5,3.31E4,4.2147E4,6.5057E4,1.51608E5,1.9198E4,1.3902E4,3.0295E4,1.1852E4,4.008E4,2.4977E4,1.39683E5,1.1925E4,7.07E3,1.2128E4,9.338E3,4.564E3,1.6712E4,1.3583E4,5.301E3,6.551E3,3.4976E4,5.104E3,1.5354E4,9.623E3,4.587E4,9.3813E4,4.781E3,7.144E3,4.585E3,2.485E3,8.386E3,3.742E3,7.264E3,2.074E3,4.28E3,2.84E2,7.564E3,9.148E3,1.0756E4,2.827E3,3.363E3,1.938E3,6.152E3,3.99E2,2.2593E4,1.2383E4,1.53E2,4.951E3,5.906E3,9.448E3,6.14E3,3.483E3,1.0475E4,3.5395E4,3.9585E4,5.4228E4,3.722E3,1.059E3,5.182E3,1.962E3,3.492E3,1.093E3,1.055E3,1.43E3,5.805E3,2.581E3,1.417E3,2.325E3,1.792E3,5.472E3,3.5E2,1.724E3,3.251E3,1.029E3,1.06E2,1.78E2,5.234E3,2.33E3,4.831E3,4.317E3,9.661E3,1.095E3,2.097E3,7.3E2,1.938E3,1.425E3,1.136E3,8.02E2,5.481E3,6.71E2,3.16E2,8.3E1,1.5098E4,7.495E3,5.205E3,7.178E3,1.45E2,8E0,2.422E3,2.529E3,2.5E2,5.656E3,5.339E3,4.109E3,3.497E3,2.643E3,1.95E3,1.533E3,6.418E3,4.057E3,2.5099E4,1.0296E4,1.6191E4,2.3394E4,4.2003E4,1.2225E4,2.581E3,1.141E3,9.45E2,1.14E2,2.9E1,5.153E3,1.6E1,1.946E3],"tree_param":{"num_deleted":"0","num_feature":"63","num_nodes":"127","size_leaf_vector":"1"}},{"base_weights":[-1.6016118E-5,-8.11403E-2,3.9594032E-2,-1.2082331E-1,-4.3229144E-2,1.669098E-2,5.646115E-2,-1.421796E-1,-9.611893E-2,-3.7705816E-2,-1.18282214E-1,3.2379206E-2,-1.0250884E-2,6.7640245E-2,3.4181148E-2,-1.3795109E-1,-2.3350778E-1,-7.980096E-2,-1.1877349E-1,-5.975341E-2,-1.9418238E-2,-9.874581E-2,-1.5549187E-1,7.1934596E-2,2.0371445E-2,1.3193631E-2,-4.8517916E-2,5.6262523E-2,8.004769E-2,5.909857E-2,1.6478712E-2,-1.4420947E-1,-9.115229E-2,-2.1585405E-1,-2.909011E-1,-7.071536E-2,-1.22246295E-1,-1.3117135E-1,-8.056949E-2,-4.2092904E-2,-8.482401E-2,-2.5021713E-2,2.8945727E-2,-3.5733613E-1,-9.6453056E-2,-1.4243577E-1,-2.0261446E-1,1.1084143E-1,3.7042297E-2,4.0617626E-2,-4.9957998E-2,7.2489075E-2,-2.3823401E-2,-2.4008263E-2,-9.6891865E-2,3.9577335E-2,6.612844E-2,9.880309E-2,7.41542E-2,4.9332242E-2,8.5616656E-2,3.3746902E-2,-2.0897627E-2,-2.9716121E-2,-4.5002926E-2,-2.4579277E-2,-3.464358E-2,-7.309065E-2,-6.175727E-2,-8.266916E-2,-9.55114E-2,-2.5434276E-2,-1.5848285E-2,-3.2224983E-2,-4.4231918E-2,-4.233707E-2,-2.7232463E-2,-2.1847174E-2,-4.8284587E-2,-5.812168E-3,-1.59635E-2,-3.0296743E-2,-4.4660056E-3,-1.7216468E-3,-1.44651765E-2,1.3618339E-2,-9.517802E-3,-1.1119033E-1,-1.7695075E-2,-2.5594702E-2,-3.887628E-2,-5.197349E-2,-3.8213044E-2,-7.6686814E-2,-5.5637073E-2,-8.561241E-3,3.5252318E-2,-1.6432378E-2,1.2925064E-2,2.0107402E-2,7.33129E-3,-9.569283E-3,-3.072137E-2,-2.1339001E-2,2.3379797E-2,-2.1810727E-3,-1.6864803E-2,-1.1008755E-2,8.52564E-3,-1.9310724E-2,-4.1693166E-2,2.0645102E-2,9.206454E-3,2.732215E-2,1.8518081E-2,3.375124E-2,2.3149407E-2,2.4607925E-2,5.16819E-4,1.8374465E-2,1.0528034E-2,2.2019044E-2,2.9417688E-2,2.1574944E-2,1.2979896E-3,3.4377936E-3,-2.0217212E-2],"categories":[],"categories_nodes":[],"categories_segments":[],"categories_sizes":[],"default_left":[0,0,0,0,0,0,0,0,0,0,0,0,0,0,0,0,0,0,0,0,0,0,0,0,0,0,0,0,0,0,0,0,0,0,0,0,0,0,0,0,0,0,0,0,0,0,0,0,0,0,0,0,0,0,0,0,0,0,0,0,0,0,0,0,0,0,0,0,0,0,0,0,0,0,0,0,0,0,0,0,0,0,0,0,0,0,0,0,0,0,0,0,0,0,0,0,0,0,0,0,0,0,0,0,0,0,0,0,0,0,0,0,0,0,0,0,0,0,0,0,0,0,0,0,0,0,0],"id":3,"left_children":[1,3,5,7,9,11,13,15,17,19,21,23,25,27,29,31,33,35,37,39,41,43,45,47,49,51,53,55,57,59,61,63,65,67,69,71,73,75,77,79,81,83,85,87,89,91,93,95,97,99,101,103,105,107,109,111,113,115,117,119,121,123,125,-1,-1,-1,-1,-1,-1,-1,-1,-1,-1,-1,-1,-1,-1,-1,-1,-1,-1,-1,-1,-1,-1,-1,-1,-1,-1,-1,-1,-1,-1,-1,-1,-1,-1,-1,-1,-1,-1,-1,-1,-1,-1,-1,-1,-1,-1,-1,-1,-1,-1,-1,-1,-1,-1,-1,-1,-1,-1,-1,-1,-1,-1,-1,-1],"loss_changes":[9.38018E2,1.4407391E2,7.577115E1,2.4672974E1,2.0299843E1,3.5161835E1,2.8131653E1,9.658661E0,8.01178E0,1.8394302E1,2.4249954E0,2.497017E1,2.7466948E1,1.0613464E1,1.6646988E1,7.0119934E0,1.060852E0,4.8566055E0,4.291565E0,9.154915E0,6.7596188E0,1.2722511E0,6.8112564E-1,1.6616364E1,5.7432297E1,4.1672688E1,1.3787722E1,6.4566803E0,3.9693909E0,4.0556145E0,1.4243229E1,5.5259705E0,6.2581635E-1,1.8645859E-1,2.0967484E-2,2.6106606E0,8.1469727E-1,2.743538E0,1.3753939E0,3.065115E0,9.662399E0,9.996812E0,2.5861907E0,5.352235E-2,7.956505E-1,3.9873886E-1,1.7814636E-1,5.381218E0,3.5834293E0,1.3379475E1,8.536737E0,5.71035E0,6.267232E0,5.1368423E0,5.3441696E0,3.7882404E0,2.7016602E0,2.5406494E0,1.5611252E1,1.9420891E0,6.341171E-1,1.6949629E1,1.0492274E1,0E0,0E0,0E0,0E0,0E0,0E0,0E0,0E0,0E0,0E0,0E0,0E0,0E0,0E0,0E0,0E0,0E0,0E0,0E0,0E0,0E0,0E0,0E0,0E0,0E0,0E0,0E0,0E0,0E0,0E0,0E0,0E0,0E0,0E0,0E0,0E0,0E0,0E0,0E0,0E0,0E0,0E0,0E0,0E0,0E0,0E0,0E0,0E0,0E0,0E0,0E0,0E0,0E0,0E0,0E0,0E0,0E0,0E0,0E0,0E0,0E0,0E0,0E0,0E0],"parents":[2147483647,0,0,1,1,2,2,3,3,4,4,5,5,6,6,7,7,8,8,9,9,10,10,11,11,12,12,13,13,14,14,15,15,16,16,17,17,18,18,19,19,20,20,21,21,22,22,23,23,24,24,25,25,26,26,27,27,28,28,29,29,30,30,31,31,32,32,33,33,34,34,35,35,36,36,37,37,38,38,39,39,40,40,41,41,42,42,43,43,44,44,45,45,46,46,47,47,48,48,49,49,50,50,51,51,52,52,53,53,54,54,55,55,56,56,57,57,58,58,59,59,60,60,61,61,62,62],"right_children":[2,4,6,8,10,12,14,16,18,20,22,24,26,28,30,32,34,36,38,40,42,44,46,48,50,52,54,56,58,60,62,64,66,68,70,72,74,76,78,80,82,84,86,88,90,92,94,96,98,100,102,104,106,108,110,112,114,116,118,120,122,124,126,-1,-1,-1,-1,-1,-1,-1,-1,-1,-1,-1,-1,-1,-1,-1,-1,-1,-1,-1,-1,-1,-1,-1,-1,-1,-1,-1,-1,-1,-1,-1,-1,-1,-1,-1,-1,-1,-1,-1,-1,-1,-1,-1,-1,-1,-1,-1,-1,-1,-1,-1,-1,-1,-1,-1,-1,-1,-1,-1,-1,-1,-1,-1,-1],"split_conditions":[1.512E3,7.275E2,2.45E3,3.891E2,6E1,2.7E1,2.5E1,7.6E1,1.551E3,4E0,6.6E1,2E0,1E0,1E0,1.7E3,1E0,8.4E1,1E0,6E0,1.75E3,6.252E3,2.3E1,7.2E1,2.4E1,1.6E1,4.7E1,3.1E1,3E0,2E0,3.161E3,1E0,1E0,1.75E3,2.7E1,8.8E1,3E0,3.2E1,4.1E1,6.7E1,1.6E1,5.34E3,1.551E3,4.9E1,1E0,1E0,1E0,2.8E1,2.4E1,2.5E1,2E0,1.9E1,2.3E1,5.5E1,4.4E1,1.551E3,2E0,6E0,2.3E1,1.6E1,1E0,1E0,4.4E1,2.8E1,-2.9716121E-2,-4.5002926E-2,-2.4579277E-2,-3.464358E-2,-7.309065E-2,-6.175727E-2,-8.266916E-2,-9.55114E-2,-2.5434276E-2,-1.5848285E-2,-3.2224983E-2,-4.4231918E-2,-4.233707E-2,-2.7232463E-2,-2.1847174E-2,-4.8284587E-2,-5.812168E-3,-1.59635E-2,-3.0296743E-2,-4.4660056E-3,-1.7216468E-3,-1.44651765E-2,1.3618339E-2,-9.517802E-3,-1.1119033E-1,-1.7695075E-2,-2.5594702E-2,-3.887628E-2,-5.197349E-2,-3.8213044E-2,-7.6686814E-2,-5.5637073E-2,-8.561241E-3,3.5252318E-2,-1.6432378E-2,1.2925064E-2,2.0107402E-2,7.33129E-3,-9.569283E-3,-3.072137E-2,-2.1339001E-2,2.3379797E-2,-2.1810727E-3,-1.6864803E-2,-1.1008755E-2,8.52564E-3,-1.9310724E-2,-4.1693166E-2,2.0645102E-2,9.206454E-3,2.732215E-2,1.8518081E-2,3.375124E-2,2.3149407E-2,2.4607925E-2,5.16819E-4,1.8374465E-2,1.0528034E-2,2.2019044E-2,2.9417688E-2,2.1574944E-2,1.2979896E-3,3.4377936E-3,-2.0217212E-2],"split_indices":[37,37,37,37,6,6,6,6,11,41,6,8,8,0,11,15,6,26,41,11,42,28,6,6,6,6,6,1,8,37,8,8,11,29,6,41,6,28,6,6,42,11,6,8,26,27,28,28,29,3,6,28,6,29,11,8,6,6,6,8,0,6,6,0,0,0,0,0,0,0,0,0,0,0,0,0,0,0,0,0,0,0,0,0,0,0,0,0,0,0,0,0,0,0,0,0,0,0,0,0,0,0,0,0,0,0,0,0,0,0,0,0,0,0,0,0,0,0,0,0,0,0,0,0,0,0,0],"split_type":[0,0,0,0,0,0,0,0,0,0,0,0,0,0,0,0,0,0,0,0,0,0,0,0,0,0,0,0,0,0,0,0,0,0,0,0,0,0,0,0,0,0,0,0,0,0,0,0,0,0,0,0,0,0,0,0,0,0,0,0,0,0,0,0,0,0,0,0,0,0,0,0,0,0,0,0,0,0,0,0,0,0,0,0,0,0,0,0,0,0,0,0,0,0,0,0,0,0,0,0,0,0,0,0,0,0,0,0,0,0,0,0,0,0,0,0,0,0,0,0,0,0,0,0,0,0,0],"sum_hessian":[2.91912E5,9.5769E4,1.96143E5,4.679E4,4.8979E4,8.3188E4,1.12955E5,2.5093E4,2.1697E4,4.5623E4,3.356E3,5.2574E4,3.0614E4,7.5214E4,3.7741E4,2.3985E4,1.108E3,1.2615E4,9.082E3,2.0684E4,2.4939E4,2.203E3,1.153E3,1.2242E4,4.0332E4,1.8984E4,1.163E4,3.9238E4,3.5976E4,1.5675E4,2.2066E4,2.1154E4,2.831E3,8.51E2,2.57E2,1.0393E4,2.222E3,6.855E3,2.227E3,1.2137E4,8.547E3,2.235E4,2.589E3,1.8E1,2.185E3,9.06E2,2.47E2,5.787E3,6.455E3,3.1317E4,9.015E3,7.296E3,1.1688E4,7.72E3,3.91E3,1.4582E4,2.4656E4,8.598E3,2.7378E4,1.1458E4,4.217E3,1.5093E4,6.973E3,2.41E3,1.8744E4,2.056E3,7.75E2,2.19E2,6.32E2,1.72E2,8.5E1,5.816E3,4.577E3,1.402E3,8.2E2,5.498E3,1.357E3,2.033E3,1.94E2,3.989E3,8.148E3,6.942E3,1.605E3,1.2205E4,1.0145E4,2.037E3,5.52E2,1.7E1,1E0,1.638E3,5.47E2,2.94E2,6.12E2,5.7E1,1.9E2,2.64E2,5.523E3,3.98E2,6.057E3,1.1897E4,1.942E4,6.707E3,2.308E3,2.66E2,7.03E3,7.736E3,3.952E3,6.216E3,1.504E3,2.207E3,1.703E3,3.398E3,1.1184E4,3.695E3,2.0961E4,5.262E3,3.336E3,2.4694E4,2.684E3,6.236E3,5.222E3,2.131E3,2.086E3,6.569E3,8.524E3,4.112E3,2.861E3],"tree_param":{"num_deleted":"0","num_feature":"63","num_nodes":"127","size_leaf_vector":"1"}},{"base_weights":[-1.4692739E-5,-6.852293E-2,2.331279E-2,-9.294623E-2,-4.6931837E-2,-4.93992E-3,3.4136016E-2,-8.036126E-2,-1.1896243E-1,-3.0655516E-2,-7.973528E-2,-1.6088456E-2,2.7490206E-2,2.7327027E-2,5.9985112E-2,-3.777864E-2,-9.1332026E-2,-9.0552874E-2,-1.4266454E-1,-1.94391E-2,-5.3748637E-2,-6.965599E-2,-1.2473986E-1,5.046628E-3,-3.1409413E-2,4.6838656E-2,1.5412348E-2,4.1566566E-2,1.3026593E-2,5.4991905E-2,7.74374E-2,1.3356909E-1,-6.18356E-2,-7.0578314E-2,-1.2407994E-1,4.1578934E-2,-1.21338844E-1,-1.264263E-1,-1.7831147E-1,3.1183567E-2,-2.9982293E-2,-2.274505E-2,-7.994481E-2,-7.749731E-2,-3.521801E-2,-1.5211077E-1,-1.11104846E-1,-2.5328095E-3,6.3482255E-2,-5.830324E-2,6.654199E-3,8.829947E-2,3.2197524E-2,2.988116E-2,-1.0803021E-2,3.1405736E-2,6.000911E-2,-2.739491E-2,2.8632294E-2,-6.849477E-2,5.5842105E-2,6.9202475E-2,8.8799655E-2,-5.2447144E-2,4.7412656E-2,-6.689568E-3,-2.2877358E-2,-1.36709325E-2,-2.5339497E-2,-4.341215E-2,-3.198163E-2,7.1558766E-2,2.8223356E-3,-2.467293E-2,-4.6453565E-2,-3.4279495E-2,-4.7413114E-2,-5.134126E-2,-6.450366E-2,3.2374963E-2,-3.5879173E-4,-4.0952833E-3,-2.2669125E-2,2.3829443E-2,-1.4445743E-2,-1.8677242E-2,-3.679567E-2,-2.7435817E-2,-1.8035863E-2,-9.176052E-3,-2.890081E-2,-3.187916E-2,-4.8191328E-2,-2.9037947E-2,-3.8876124E-2,-3.529946E-3,3.658409E-3,2.0207811E-2,-5.1877373E-3,-2.1172319E-2,-9.834137E-3,5.9490013E-3,-1.1674805E-2,3.776549E-2,2.0071974E-2,1.7881347E-2,-2.5925576E-4,3.2037407E-2,5.410617E-3,4.268667E-3,-1.33121E-2,7.142454E-3,1.3728636E-2,1.6653389E-2,2.266609E-2,-1.4025013E-2,3.75217E-3,5.0185826E-3,1.5285734E-2,-1.4560541E-2,-7.196722E-2,1.5520041E-2,2.2782156E-2,1.7662177E-2,2.311826E-2,2.6911134E-2,1.3072739E-2],"categories":[],"categories_nodes":[],"categories_segments":[],"categories_sizes":[],"default_left":[0,0,0,0,0,0,0,0,0,0,0,0,0,0,0,0,0,0,0,0,0,0,0,0,0,0,0,0,0,0,0,0,0,0,0,0,0,0,0,0,0,0,0,0,0,0,0,0,0,0,0,0,0,0,0,0,0,0,0,0,0,0,0,0,0,0,0,0,0,0,0,0,0,0,0,0,0,0,0,0,0,0,0,0,0,0,0,0,0,0,0,0,0,0,0,0,0,0,0,0,0,0,0,0,0,0,0,0,0,0,0,0,0,0,0,0,0,0,0,0,0,0,0,0,0,0,0],"id":4,"left_children":[1,3,5,7,9,11,13,15,17,19,21,23,25,27,29,31,33,35,37,39,41,43,45,47,49,51,53,55,57,59,61,63,65,67,69,71,73,75,77,79,81,83,85,87,89,91,93,95,97,99,101,103,105,107,109,111,113,115,117,119,121,123,125,-1,-1,-1,-1,-1,-1,-1,-1,-1,-1,-1,-1,-1,-1,-1,-1,-1,-1,-1,-1,-1,-1,-1,-1,-1,-1,-1,-1,-1,-1,-1,-1,-1,-1,-1,-1,-1,-1,-1,-1,-1,-1,-1,-1,-1,-1,-1,-1,-1,-1,-1,-1,-1,-1,-1,-1,-1,-1,-1,-1,-1,-1,-1,-1],"loss_changes":[4.66515E2,3.9096832E1,6.658923E1,1.1381805E1,2.1012093E1,2.1807957E1,2.771019E1,1.0952484E1,7.6237335E0,6.8133087E0,5.9118805E0,1.45350065E1,3.6053143E0,2.537664E1,2.8563004E0,1.9819098E1,1.2664505E1,2.0998993E1,3.555275E0,9.4526615E0,6.982889E0,2.8775063E0,8.739395E-1,8.355642E0,2.6639519E1,3.5968637E0,3.6044807E0,1.1699593E1,3.9224297E1,2.6838684E0,6.7689514E-1,4.4956446E0,2.4017506E0,3.9607582E0,2.5913467E0,6.1818056E0,5.4707375E0,1.6161118E0,4.7187805E-1,7.5855465E0,1.0909737E1,1.0232231E1,3.5131931E0,2.1012192E0,5.574889E-1,2.9216003E-1,4.098816E-1,2.2711601E0,6.794958E-1,4.7735786E0,6.470342E0,1.2354631E0,3.972486E0,5.576498E0,2.8409717E0,4.390644E0,1.5466156E0,1.3377017E1,1.1918362E1,5.8703196E-1,2.0896454E0,3.393631E-1,1.21370316E-1,0E0,0E0,0E0,0E0,0E0,0E0,0E0,0E0,0E0,0E0,0E0,0E0,0E0,0E0,0E0,0E0,0E0,0E0,0E0,0E0,0E0,0E0,0E0,0E0,0E0,0E0,0E0,0E0,0E0,0E0,0E0,0E0,0E0,0E0,0E0,0E0,0E0,0E0,0E0,0E0,0E0,0E0,0E0,0E0,0E0,0E0,0E0,0E0,0E0,0E0,0E0,0E0,0E0,0E0,0E0,0E0,0E0,0E0,0E0,0E0,0E0,0E0,0E0,0E0],"parents":[2147483647,0,0,1,1,2,2,3,3,4,4,5,5,6,6,7,7,8,8,9,9,10,10,11,11,12,12,13,13,14,14,15,15,16,16,17,17,18,18,19,19,20,20,21,21,22,22,23,23,24,24,25,25,26,26,27,27,28,28,29,29,30,30,31,31,32,32,33,33,34,34,35,35,36,36,37,37,38,38,39,39,40,40,41,41,42,42,43,43,44,44,45,45,46,46,47,47,48,48,49,49,50,50,51,51,52,52,53,53,54,54,55,55,56,56,57,57,58,58,59,59,60,60,61,61,62,62],"right_children":[2,4,6,8,10,12,14,16,18,20,22,24,26,28,30,32,34,36,38,40,42,44,46,48,50,52,54,56,58,60,62,64,66,68,70,72,74,76,78,80,82,84,86,88,90,92,94,96,98,100,102,104,106,108,110,112,114,116,118,120,122,124,126,-1,-1,-1,-1,-1,-1,-1,-1,-1,-1,-1,-1,-1,-1,-1,-1,-1,-1,-1,-1,-1,-1,-1,-1,-1,-1,-1,-1,-1,-1,-1,-1,-1,-1,-1,-1,-1,-1,-1,-1,-1,-1,-1,-1,-1,-1,-1,-1,-1,-1,-1,-1,-1,-1,-1,-1,-1,-1,-1,-1,-1,-1,-1,-1],"split_conditions":[1.582E3,5.32E2,1.978E3,3.5E1,1.551E3,4.6E1,5E0,2E0,1E0,3E1,1E0,1.668E3,1.5E1,1.668E3,7E0,2.8E1,1.9E1,6.2E1,4E1,2E0,1E0,8E0,2E0,3.185E3,5.286E3,3E0,2E0,3.076E3,4.1E3,1.7E1,3E1,2.4E1,3.1E1,3E0,3E0,5.2E1,7.1E1,1.668E3,1E0,2.6E1,1.8E1,5.1E1,3.5E1,5E0,6.4E1,1E0,3E1,1E0,5.6E1,7E0,5E1,1.3E1,9E0,2.5E1,1.8E1,3E1,3.458E3,3.099E3,6.84E3,3.6E1,2E0,1E0,1E0,-5.2447144E-2,4.7412656E-2,-6.689568E-3,-2.2877358E-2,-1.36709325E-2,-2.5339497E-2,-4.341215E-2,-3.198163E-2,7.1558766E-2,2.8223356E-3,-2.467293E-2,-4.6453565E-2,-3.4279495E-2,-4.7413114E-2,-5.134126E-2,-6.450366E-2,3.2374963E-2,-3.5879173E-4,-4.0952833E-3,-2.2669125E-2,2.3829443E-2,-1.4445743E-2,-1.8677242E-2,-3.679567E-2,-2.7435817E-2,-1.8035863E-2,-9.176052E-3,-2.890081E-2,-3.187916E-2,-4.8191328E-2,-2.9037947E-2,-3.8876124E-2,-3.529946E-3,3.658409E-3,2.0207811E-2,-5.1877373E-3,-2.1172319E-2,-9.834137E-3,5.9490013E-3,-1.1674805E-2,3.776549E-2,2.0071974E-2,1.7881347E-2,-2.5925576E-4,3.2037407E-2,5.410617E-3,4.268667E-3,-1.33121E-2,7.142454E-3,1.3728636E-2,1.6653389E-2,2.266609E-2,-1.4025013E-2,3.75217E-3,5.0185826E-3,1.5285734E-2,-1.4560541E-2,-7.196722E-2,1.5520041E-2,2.2782156E-2,1.7662177E-2,2.311826E-2,2.6911134E-2,1.3072739E-2],"split_indices":[42,37,37,6,11,28,1,8,8,6,26,11,6,11,1,6,6,6,6,8,8,41,41,42,42,8,8,42,42,29,28,28,6,8,38,6,6,11,26,6,6,6,6,38,6,3,6,0,6,41,6,6,6,6,6,28,37,37,42,6,0,0,35,0,0,0,0,0,0,0,0,0,0,0,0,0,0,0,0,0,0,0,0,0,0,0,0,0,0,0,0,0,0,0,0,0,0,0,0,0,0,0,0,0,0,0,0,0,0,0,0,0,0,0,0,0,0,0,0,0,0,0,0,0,0,0,0],"split_type":[0,0,0,0,0,0,0,0,0,0,0,0,0,0,0,0,0,0,0,0,0,0,0,0,0,0,0,0,0,0,0,0,0,0,0,0,0,0,0,0,0,0,0,0,0,0,0,0,0,0,0,0,0,0,0,0,0,0,0,0,0,0,0,0,0,0,0,0,0,0,0,0,0,0,0,0,0,0,0,0,0,0,0,0,0,0,0,0,0,0,0,0,0,0,0,0,0,0,0,0,0,0,0,0,0,0,0,0,0,0,0,0,0,0,0,0,0,0,0,0,0,0,0,0,0,0,0],"sum_hessian":[2.91912E5,7.4149E4,2.17763E5,3.4791E4,3.9358E4,6.0316E4,1.57447E5,2.3451E4,1.134E4,2.6307E4,1.3051E4,4.4886E4,1.543E4,1.24622E5,3.2825E4,4.805E3,1.8646E4,5.16E3,6.18E3,1.7708E4,8.599E3,1.0665E4,2.386E3,1.8864E4,2.6022E4,5.929E3,9.501E3,6.2443E4,6.2179E4,2.5526E4,7.299E3,5.91E2,4.214E3,1.1415E4,7.231E3,9.75E2,4.185E3,4.249E3,1.931E3,3.052E3,1.4656E4,3.939E3,4.66E3,8.686E3,1.979E3,7.9E2,1.596E3,1.6699E4,2.165E3,1.5248E4,1.0774E4,1.546E3,4.383E3,6.122E3,3.379E3,4.0263E4,2.218E4,1.7319E4,4.486E4,1.74E2,2.5352E4,4.236E3,3.063E3,4.3E1,5.48E2,1.127E3,3.087E3,4.077E3,7.338E3,3.313E3,3.918E3,1.36E2,8.39E2,1.933E3,2.252E3,3.072E3,1.177E3,1.62E3,3.11E2,9.05E2,2.147E3,1.0791E4,3.865E3,7.84E2,3.155E3,3.297E3,1.363E3,4.815E3,3.871E3,1.841E3,1.38E2,1.26E2,6.64E2,9.03E2,6.93E2,1.0264E4,6.435E3,2.066E3,9.9E1,1.0296E4,4.952E3,8.358E3,2.416E3,5.59E2,9.87E2,2.396E3,1.987E3,8.16E2,5.306E3,1.936E3,1.443E3,2.6331E4,1.3932E4,1.7206E4,4.974E3,1.1662E4,5.657E3,2.9258E4,1.5602E4,1.57E2,1.7E1,2.1052E4,4.3E3,1.834E3,2.402E3,3.002E3,6.1E1],"tree_param":{"num_deleted":"0","num_feature":"63","num_nodes":"127","size_leaf_vector":"1"}},{"base_weights":[-1.1756669E-5,-5.0302897E-2,1.6064594E-2,-7.094644E-2,-3.5530813E-2,-8.20333E-3,2.4179764E-2,-8.892193E-2,-5.855309E-2,-5.1491894E-2,-2.4101226E-2,5.9218258E-3,-2.2527829E-2,1.4316469E-2,3.702514E-2,-9.823497E-2,-6.900084E-2,-5.125924E-2,-9.018873E-2,-4.801757E-2,-1.06325075E-1,-2.1341061E-2,-7.4793145E-2,-6.9435243E-3,2.6580056E-2,-4.6530306E-2,7.644909E-3,-1.1126658E-1,1.5403737E-2,6.2744275E-2,3.2623738E-2,-8.92536E-2,-1.2251457E-1,-7.8607075E-2,-5.19757E-2,-7.398715E-2,-4.3926977E-2,-9.225397E-2,2.5773652E-2,-1.6950687E-2,-5.439636E-2,9.6891746E-2,-1.07060425E-1,1.5210638E-2,-2.6351351E-2,-6.326891E-2,-1.06120676E-1,-1.35834245E-2,2.0874044E-2,3.358172E-2,1.1395032E-2,-5.8741726E-2,-1.4558719E-2,-1.0738045E-3,3.4617964E-2,-8.0655664E-2,-2.9610422E-1,4.260106E-2,1.0720286E-2,7.429518E-2,5.023229E-2,3.680849E-2,5.5158264E-3,-3.604034E-2,-2.5052529E-2,-4.2568658E-2,-3.378857E-2,-2.6456553E-2,-1.6411543E-2,-1.3757863E-2,-3.7864294E-2,-3.0692443E-2,-2.0204958E-2,-1.2291999E-2,-2.8895626E-2,-2.5034059E-2,-3.3026636E-2,1.9882794E-2,-3.187601E-2,1.8116644E-2,-1.4020783E-2,-1.2791694E-2,-3.191187E-2,-2.909986E-2,-4.034468E-2,3.752845E-2,-2.5924947E-3,-5.273769E-3,-2.170837E-2,-2.7428688E-2,-1.5535671E-2,-2.9376002E-2,-4.6874017E-2,-6.06385E-3,1.1867657E-3,1.3622154E-2,4.318867E-3,8.384719E-3,1.42853465E-2,-9.471009E-2,3.70842E-3,-2.3840347E-2,-1.1895751E-2,-9.776263E-3,2.2444448E-4,2.1131607E-3,-8.401262E-3,1.1211747E-2,-3.2172967E-2,-1.0419832E-2,-3.0855825E-2,-1.3037194E-1,-8.44662E-2,1.9110147E-2,8.697626E-3,4.1392114E-4,6.7987195E-3,2.5684703E-2,1.8340385E-2,1.8744811E-2,4.3791668E-3,2.2828057E-2,9.456082E-3,8.059803E-3,-8.70558E-3],"categories":[],"categories_nodes":[],"categories_segments":[],"categories_sizes":[],"default_left":[0,0,0,0,0,0,0,0,0,0,0,0,0,0,0,0,0,0,0,0,0,0,0,0,0,0,0,0,0,0,0,0,0,0,0,0,0,0,0,0,0,0,0,0,0,0,0,0,0,0,0,0,0,0,0,0,0,0,0,0,0,0,0,0,0,0,0,0,0,0,0,0,0,0,0,0,0,0,0,0,0,0,0,0,0,0,0,0,0,0,0,0,0,0,0,0,0,0,0,0,0,0,0,0,0,0,0,0,0,0,0,0,0,0,0,0,0,0,0,0,0,0,0,0,0],"id":5,"left_children":[1,3,5,7,9,11,13,15,17,19,21,23,25,27,29,31,33,35,37,39,41,43,45,47,49,51,53,55,57,59,61,63,65,67,69,71,73,75,77,79,81,-1,83,85,87,89,91,93,95,97,99,101,103,105,107,109,111,113,115,117,119,121,123,-1,-1,-1,-1,-1,-1,-1,-1,-1,-1,-1,-1,-1,-1,-1,-1,-1,-1,-1,-1,-1,-1,-1,-1,-1,-1,-1,-1,-1,-1,-1,-1,-1,-1,-1,-1,-1,-1,-1,-1,-1,-1,-1,-1,-1,-1,-1,-1,-1,-1,-1,-1,-1,-1,-1,-1,-1,-1,-1,-1,-1,-1],"loss_changes":[2.3601186E2,2.1560684E1,4.3563557E1,6.56514E0,7.51828E0,1.1216414E1,2.1002144E1,2.2258377E0,4.0241966E0,3.27145E0,3.359375E0,7.418507E0,1.9933075E1,1.2805435E1,8.148369E0,1.7767563E0,6.234455E-1,2.3616333E0,7.855129E-1,3.2046585E0,3.5784054E-1,4.172573E0,4.4095802E-1,3.1774092E0,1.1385202E0,5.9838676E0,2.8679395E0,4.5308475E0,1.1841436E1,1.5166702E0,6.9741974E0,1.0523376E0,4.0765E-1,5.564928E-1,6.2398624E-1,6.435032E-1,1.6567955E0,4.9548912E-1,3.171913E-1,6.3537827E0,8.196533E0,0E0,2.6918888E-1,7.200938E0,8.085342E0,2.8921008E-1,1.21174574E-1,1.6147945E0,5.261704E-1,5.782623E-1,1.0729337E0,4.3853455E0,1.1695632E0,2.0151455E0,1.1680818E0,7.018204E-1,1.07325554E-1,3.9196472E0,8.846783E0,8.094101E-1,2.2049465E0,1.106205E1,6.0637326E0,0E0,0E0,0E0,0E0,0E0,0E0,0E0,0E0,0E0,0E0,0E0,0E0,0E0,0E0,0E0,0E0,0E0,0E0,0E0,0E0,0E0,0E0,0E0,0E0,0E0,0E0,0E0,0E0,0E0,0E0,0E0,0E0,0E0,0E0,0E0,0E0,0E0,0E0,0E0,0E0,0E0,0E0,0E0,0E0,0E0,0E0,0E0,0E0,0E0,0E0,0E0,0E0,0E0,0E0,0E0,0E0,0E0,0E0,0E0,0E0,0E0,0E0],"parents":[2147483647,0,0,1,1,2,2,3,3,4,4,5,5,6,6,7,7,8,8,9,9,10,10,11,11,12,12,13,13,14,14,15,15,16,16,17,17,18,18,19,19,20,20,21,21,22,22,23,23,24,24,25,25,26,26,27,27,28,28,29,29,30,30,31,31,32,32,33,33,34,34,35,35,36,36,37,37,38,38,39,39,40,40,42,42,43,43,44,44,45,45,46,46,47,47,48,48,49,49,50,50,51,51,52,52,53,53,54,54,55,55,56,56,57,57,58,58,59,59,60,60,61,61,62,62],"right_children":[2,4,6,8,10,12,14,16,18,20,22,24,26,28,30,32,34,36,38,40,42,44,46,48,50,52,54,56,58,60,62,64,66,68,70,72,74,76,78,80,82,-1,84,86,88,90,92,94,96,98,100,102,104,106,108,110,112,114,116,118,120,122,124,-1,-1,-1,-1,-1,-1,-1,-1,-1,-1,-1,-1,-1,-1,-1,-1,-1,-1,-1,-1,-1,-1,-1,-1,-1,-1,-1,-1,-1,-1,-1,-1,-1,-1,-1,-1,-1,-1,-1,-1,-1,-1,-1,-1,-1,-1,-1,-1,-1,-1,-1,-1,-1,-1,-1,-1,-1,-1,-1,-1,-1,-1],"split_conditions":[1.151E3,2E0,2E0,3E0,2.8E1,1.551E3,1E0,2.9E1,1E0,6.6E1,6.5E1,2.492E3,4.723E3,1.9E1,8E0,1.551E3,2E0,2.7E1,1.625E3,1E0,1.3E1,1E0,7.3E1,4.3E1,2.7E1,3.1E1,7.674E3,4.1E1,8E0,4E0,3E0,1.089E2,2.169E2,1E0,8E1,2.5E1,7E1,1.807E3,2E0,5.3E1,3.3E1,9.6891746E-2,7.4E1,5E1,3.3E1,1E0,8.2E1,6E0,9E0,3.262E3,1.7E1,3.04E3,2.885E3,4.7E1,1E0,1.2E1,1.5E1,4E0,2.612E3,7E0,6E0,1.3E1,1E1,-3.604034E-2,-2.5052529E-2,-4.2568658E-2,-3.378857E-2,-2.6456553E-2,-1.6411543E-2,-1.3757863E-2,-3.7864294E-2,-3.0692443E-2,-2.0204958E-2,-1.2291999E-2,-2.8895626E-2,-2.5034059E-2,-3.3026636E-2,1.9882794E-2,-3.187601E-2,1.8116644E-2,-1.4020783E-2,-1.2791694E-2,-3.191187E-2,-2.909986E-2,-4.034468E-2,3.752845E-2,-2.5924947E-3,-5.273769E-3,-2.170837E-2,-2.7428688E-2,-1.5535671E-2,-2.9376002E-2,-4.6874017E-2,-6.06385E-3,1.1867657E-3,1.3622154E-2,4.318867E-3,8.384719E-3,1.42853465E-2,-9.471009E-2,3.70842E-3,-2.3840347E-2,-1.1895751E-2,-9.776263E-3,2.2444448E-4,2.1131607E-3,-8.401262E-3,1.1211747E-2,-3.2172967E-2,-1.0419832E-2,-3.0855825E-2,-1.3037194E-1,-8.44662E-2,1.9110147E-2,8.697626E-3,4.1392114E-4,6.7987195E-3,2.5684703E-2,1.8340385E-2,1.8744811E-2,4.3791668E-3,2.2828057E-2,9.456082E-3,8.059803E-3,-8.70558E-3],"split_indices":[37,41,1,38,29,11,0,29,26,6,6,42,42,28,6,11,31,29,30,8,28,8,6,28,6,28,42,6,6,8,8,42,37,0,6,29,6,11,31,6,6,0,6,6,6,27,6,38,6,42,28,42,42,6,23,6,28,8,37,6,6,6,6,0,0,0,0,0,0,0,0,0,0,0,0,0,0,0,0,0,0,0,0,0,0,0,0,0,0,0,0,0,0,0,0,0,0,0,0,0,0,0,0,0,0,0,0,0,0,0,0,0,0,0,0,0,0,0,0,0,0,0,0,0,0],"split_type":[0,0,0,0,0,0,0,0,0,0,0,0,0,0,0,0,0,0,0,0,0,0,0,0,0,0,0,0,0,0,0,0,0,0,0,0,0,0,0,0,0,0,0,0,0,0,0,0,0,0,0,0,0,0,0,0,0,0,0,0,0,0,0,0,0,0,0,0,0,0,0,0,0,0,0,0,0,0,0,0,0,0,0,0,0,0,0,0,0,0,0,0,0,0,0,0,0,0,0,0,0,0,0,0,0,0,0,0,0,0,0,0,0,0,0,0,0,0,0,0,0,0,0,0,0],"sum_hessian":[2.91912E5,7.071E4,2.21202E5,2.9492E4,4.1218E4,5.5433E4,1.65769E5,1.2033E4,1.7459E4,1.7198E4,2.402E4,2.7911E4,2.7522E4,9.377E4,7.1999E4,8.197E3,3.836E3,1.419E4,3.269E3,1.6175E4,1.023E3,2.2781E4,1.239E3,1.72E4,1.0711E4,1.5328E4,1.2194E4,8.04E2,9.2966E4,1.0519E4,6.148E4,5.987E3,2.21E3,2.45E3,1.386E3,3.459E3,1.0731E4,3.212E3,5.7E1,2.756E3,1.3419E4,1E0,1.022E3,2.746E3,2.0035E4,9.08E2,3.31E2,1.3886E4,3.314E3,7.33E3,3.381E3,1.1091E4,4.237E3,9.216E3,2.978E3,6.91E2,1.13E2,1.3656E4,7.931E4,5.467E3,5.052E3,5.3258E4,8.222E3,9.36E2,5.051E3,7.42E2,1.468E3,1.747E3,7.03E2,1.282E3,1.04E2,6.54E2,2.805E3,1.016E4,5.71E2,2.154E3,1.058E3,4.4E1,1.3E1,7.66E2,1.99E3,1.0945E4,2.474E3,7.51E2,2.71E2,4.89E2,2.257E3,1.6828E4,3.207E3,2.61E2,6.47E2,2.87E2,4.4E1,1.0077E4,3.809E3,6.91E2,2.623E3,5.233E3,2.097E3,9E0,3.372E3,5.316E3,5.775E3,1.945E3,2.292E3,7.082E3,2.134E3,2.922E3,5.6E1,2.26E2,4.65E2,8E0,1.05E2,5.353E3,8.303E3,4.4503E4,3.4807E4,2.936E3,2.531E3,3.759E3,1.293E3,6.317E3,4.6941E4,5.081E3,3.141E3],"tree_param":{"num_deleted":"0","num_feature":"63","num_nodes":"125","size_leaf_vector":"1"}},{"base_weights":[-1.0863695E-5,-3.2095175E-2,1.3046936E-2,-2.2846168E-2,-5.3382006E-2,2.0713259E-2,-2.1545151E-3,-3.7162796E-2,-7.2873808E-3,-6.919356E-2,-4.1367646E-2,3.9818972E-2,1.3792523E-2,1.223211E-2,-3.4544326E-2,-5.7045747E-2,-2.8490901E-2,-1.37057565E-2,1.568494E-2,-6.354268E-2,-9.577005E-2,-3.5521224E-2,-6.9703214E-2,6.4118385E-2,2.3652492E-2,2.1839017E-2,-5.3021334E-2,4.4471927E-2,-1.0978832E-2,-1.7205263E-2,-7.529726E-2,-5.182656E-2,-8.1693396E-2,-4.884796E-2,-2.179004E-2,-8.080716E-3,-3.3859983E-2,-3.851164E-3,2.2349488E-2,-8.883246E-2,-5.7184592E-2,-1.0004535E-1,-4.1524515E-2,-1.7981407E-1,-3.460257E-2,-3.7592594E-2,-7.7772595E-2,-2.7577154E-2,6.892877E-2,-1.6560419E-2,3.0154372E-2,2.581916E-2,-3.242117E-3,-3.0328896E-2,-7.3476106E-2,-5.5493012E-2,4.737799E-2,-2.4816003E-1,-9.152062E-3,-3.662709E-1,-1.6271407E-2,-6.378436E-2,-1.2688234E-1,-1.7783424E-2,-1.0015918E-2,-1.6970351E-2,-2.6890662E-2,-4.699456E-3,-1.578607E-2,-8.58149E-3,-2.2030384E-3,-4.7186995E-3,1.5819265E-3,-6.8140305E-3,-1.5515871E-2,-2.1200627E-3,1.1526702E-2,1.3281191E-2,5.132092E-3,-3.265708E-2,-2.4325708E-2,-1.7444713E-2,1.6814915E-2,-3.021224E-2,4.7019787E-2,1.6076913E-2,-1.722778E-2,-4.454536E-2,-8.919658E-2,-1.2056509E-2,-4.0879836E-3,3.4064334E-2,-1.7996222E-2,-1.9899283E-2,-3.4446623E-2,-1.7096006E-3,-2.5220595E-2,3.1685855E-2,1.8509854E-2,-4.2869695E-2,-2.449291E-3,7.5447974E-3,1.7284589E-2,1.3114E-2,4.5930333E-3,4.033814E-3,-6.205587E-3,-1.2657353E-2,-1.8525196E-3,-2.768807E-2,-1.172786E-2,-2.3952585E-4,-4.7002207E-2,4.3016754E-2,1.3131222E-2,-8.2429245E-2,-4.5128983E-2,8.8127266E-4,-9.795119E-3,-1.1471109E-1,3.9240953E-2,-7.394639E-3,5.9731216E-3,-2.157981E-2,-4.111568E-3,-3.376911E-2,-5.101322E-2],"categories":[],"categories_nodes":[],"categories_segments":[],"categories_sizes":[],"default_left":[0,0,0,0,0,0,0,0,0,0,0,0,0,0,0,0,0,0,0,0,0,0,0,0,0,0,0,0,0,0,0,0,0,0,0,0,0,0,0,0,0,0,0,0,0,0,0,0,0,0,0,0,0,0,0,0,0,0,0,0,0,0,0,0,0,0,0,0,0,0,0,0,0,0,0,0,0,0,0,0,0,0,0,0,0,0,0,0,0,0,0,0,0,0,0,0,0,0,0,0,0,0,0,0,0,0,0,0,0,0,0,0,0,0,0,0,0,0,0,0,0,0,0,0,0,0,0],"id":6,"left_children":[1,3,5,7,9,11,13,15,17,19,21,23,25,27,29,31,33,35,37,39,41,43,45,47,49,51,53,55,57,59,61,63,65,67,69,71,73,75,77,79,81,83,85,87,89,91,93,95,97,99,101,103,105,107,109,111,113,115,117,119,121,123,125,-1,-1,-1,-1,-1,-1,-1,-1,-1,-1,-1,-1,-1,-1,-1,-1,-1,-1,-1,-1,-1,-1,-1,-1,-1,-1,-1,-1,-1,-1,-1,-1,-1,-1,-1,-1,-1,-1,-1,-1,-1,-1,-1,-1,-1,-1,-1,-1,-1,-1,-1,-1,-1,-1,-1,-1,-1,-1,-1,-1,-1,-1,-1,-1],"loss_changes":[1.22297516E2,1.6623299E1,2.417902E1,1.3111874E1,4.855507E0,1.8235996E1,3.241213E1,5.2841682E0,4.159638E0,1.6520576E0,2.4054184E0,1.4405357E1,5.4433296E1,3.6042404E1,1.5115377E1,1.1932812E0,2.9110126E0,2.4994984E0,8.0224395E-1,1.4594383E0,4.4437218E-1,1.591198E0,6.409712E-1,6.4643135E0,5.7588844E0,9.020905E0,5.0493183E0,5.859482E0,1.2131175E1,4.886632E0,3.7839165E0,1.053997E0,3.1920052E-1,6.608534E-1,1.5812311E0,1.7608671E0,9.565649E-1,2.1342452E-1,5.27194E-1,2.7474213E-1,7.984104E-1,3.2044792E-1,2.193579E-1,2.3564386E-1,1.402648E0,1.7025762E0,8.338394E-1,9.0299916E-1,3.6859818E0,3.251102E0,2.6043377E0,1.4665222E1,3.6031551E0,1.4784665E0,3.6992016E0,3.1542854E0,6.7791443E0,5.150709E-1,7.8951406E0,3.701191E-1,4.5380335E0,2.1299095E0,7.0023155E-1,0E0,0E0,0E0,0E0,0E0,0E0,0E0,0E0,0E0,0E0,0E0,0E0,0E0,0E0,0E0,0E0,0E0,0E0,0E0,0E0,0E0,0E0,0E0,0E0,0E0,0E0,0E0,0E0,0E0,0E0,0E0,0E0,0E0,0E0,0E0,0E0,0E0,0E0,0E0,0E0,0E0,0E0,0E0,0E0,0E0,0E0,0E0,0E0,0E0,0E0,0E0,0E0,0E0,0E0,0E0,0E0,0E0,0E0,0E0,0E0,0E0,0E0,0E0,0E0],"parents":[2147483647,0,0,1,1,2,2,3,3,4,4,5,5,6,6,7,7,8,8,9,9,10,10,11,11,12,12,13,13,14,14,15,15,16,16,17,17,18,18,19,19,20,20,21,21,22,22,23,23,24,24,25,25,26,26,27,27,28,28,29,29,30,30,31,31,32,32,33,33,34,34,35,35,36,36,37,37,38,38,39,39,40,40,41,41,42,42,43,43,44,44,45,45,46,46,47,47,48,48,49,49,50,50,51,51,52,52,53,53,54,54,55,55,56,56,57,57,58,58,59,59,60,60,61,61,62,62],"right_children":[2,4,6,8,10,12,14,16,18,20,22,24,26,28,30,32,34,36,38,40,42,44,46,48,50,52,54,56,58,60,62,64,66,68,70,72,74,76,78,80,82,84,86,88,90,92,94,96,98,100,102,104,106,108,110,112,114,116,118,120,122,124,126,-1,-1,-1,-1,-1,-1,-1,-1,-1,-1,-1,-1,-1,-1,-1,-1,-1,-1,-1,-1,-1,-1,-1,-1,-1,-1,-1,-1,-1,-1,-1,-1,-1,-1,-1,-1,-1,-1,-1,-1,-1,-1,-1,-1,-1,-1,-1,-1,-1,-1,-1,-1,-1,-1,-1,-1,-1,-1,-1,-1,-1,-1,-1,-1],"split_conditions":[1.822E3,1.551E3,2.7E1,4E0,4E0,2E0,1E0,1E0,4.5E1,1E0,1E0,2.3E1,1.7E1,4.6E1,3.1E1,1E0,2.7E1,1E0,6.44E2,2.301E2,1.523E3,2.3E1,1E0,2.4E1,2.6E1,1.5E1,1.551E3,2.3E1,2.3E1,2.1E1,3.5E1,1E0,1.8E1,1E1,1E0,1E0,2.9E1,3E0,9E0,2.7E1,1.662E3,2.505E2,1.777E3,4E1,1E0,5.1E1,3.1E1,2E1,2.143E3,2.4E1,4.8E1,3E0,1.551E3,3.1E1,4.5E1,3.8E1,1.404E3,1.8E1,5.4E1,3E0,4.7E1,4.6E1,2.056E3,-1.7783424E-2,-1.0015918E-2,-1.6970351E-2,-2.6890662E-2,-4.699456E-3,-1.578607E-2,-8.58149E-3,-2.2030384E-3,-4.7186995E-3,1.5819265E-3,-6.8140305E-3,-1.5515871E-2,-2.1200627E-3,1.1526702E-2,1.3281191E-2,5.132092E-3,-3.265708E-2,-2.4325708E-2,-1.7444713E-2,1.6814915E-2,-3.021224E-2,4.7019787E-2,1.6076913E-2,-1.722778E-2,-4.454536E-2,-8.919658E-2,-1.2056509E-2,-4.0879836E-3,3.4064334E-2,-1.7996222E-2,-1.9899283E-2,-3.4446623E-2,-1.7096006E-3,-2.5220595E-2,3.1685855E-2,1.8509854E-2,-4.2869695E-2,-2.449291E-3,7.5447974E-3,1.7284589E-2,1.3114E-2,4.5930333E-3,4.033814E-3,-6.205587E-3,-1.2657353E-2,-1.8525196E-3,-2.768807E-2,-1.172786E-2,-2.3952585E-4,-4.7002207E-2,4.3016754E-2,1.3131222E-2,-8.2429245E-2,-4.5128983E-2,8.8127266E-4,-9.795119E-3,-1.1471109E-1,3.9240953E-2,-7.394639E-3,5.9731216E-3,-2.157981E-2,-4.111568E-3,-3.376911E-2,-5.101322E-2],"split_indices":[42,11,6,38,38,8,8,41,29,26,26,6,6,6,6,26,29,26,37,37,30,28,8,28,29,6,11,28,28,28,6,0,6,6,0,0,6,1,6,29,30,10,11,6,15,6,6,6,37,28,28,8,11,28,28,6,37,28,6,0,28,29,37,0,0,0,0,0,0,0,0,0,0,0,0,0,0,0,0,0,0,0,0,0,0,0,0,0,0,0,0,0,0,0,0,0,0,0,0,0,0,0,0,0,0,0,0,0,0,0,0,0,0,0,0,0,0,0,0,0,0,0,0,0,0,0,0],"split_type":[0,0,0,0,0,0,0,0,0,0,0,0,0,0,0,0,0,0,0,0,0,0,0,0,0,0,0,0,0,0,0,0,0,0,0,0,0,0,0,0,0,0,0,0,0,0,0,0,0,0,0,0,0,0,0,0,0,0,0,0,0,0,0,0,0,0,0,0,0,0,0,0,0,0,0,0,0,0,0,0,0,0,0,0,0,0,0,0,0,0,0,0,0,0,0,0,0,0,0,0,0,0,0,0,0,0,0,0,0,0,0,0,0,0,0,0,0,0,0,0,0,0,0,0,0,0,0],"sum_hessian":[2.91912E5,8.4438E4,2.07474E5,5.8864E4,2.5574E4,1.37919E5,6.9555E4,3.0655E4,2.8209E4,1.104E4,1.4534E4,3.6673E4,1.01246E5,4.8163E4,2.1392E4,9.308E3,2.1347E4,2.2049E4,6.16E3,9.107E3,1.933E3,1.205E4,2.484E3,1.465E4,2.2023E4,9.0364E4,1.0882E4,2.016E4,2.8003E4,1.5008E4,6.384E3,7.684E3,1.624E3,5.285E3,1.6062E4,1.7239E4,4.81E3,1.567E3,4.593E3,1.827E3,7.28E3,1.791E3,1.42E2,7.5E1,1.1975E4,5E2,1.984E3,7.3E2,1.392E4,3.065E3,1.8958E4,7.7988E4,1.2376E4,5.16E3,5.722E3,5.69E2,1.9591E4,2.13E2,2.779E4,3.9E1,1.4969E4,5.221E3,1.163E3,5.471E3,2.213E3,3.92E2,1.232E3,5.4E2,4.745E3,1.0913E4,5.149E3,1.0961E4,6.278E3,2.963E3,1.847E3,1.457E3,1.1E2,8.85E2,3.708E3,5.06E2,1.321E3,7.219E3,6.1E1,1.787E3,4E0,2E1,1.22E2,6.1E1,1.4E1,9.456E3,2.519E3,6.4E1,4.36E2,1.518E3,4.66E2,5.27E2,2.03E2,2.289E3,1.1631E4,1.9E2,2.875E3,1.6037E4,2.921E3,2.8854E4,4.9134E4,6.325E3,6.051E3,3.46E3,1.7E3,3.697E3,2.025E3,3.7E2,1.99E2,7.08E2,1.8883E4,1.66E2,4.7E1,1.835E4,9.44E3,3.8E1,1E0,1.2155E4,2.814E3,4.49E3,7.31E2,8.76E2,2.87E2],"tree_param":{"num_deleted":"0","num_feature":"63","num_nodes":"127","size_leaf_vector":"1"}},{"base_weights":[-9.931107E-6,-2.1523684E-2,9.596903E-3,-3.6831576E-2,-1.3919721E-2,1.9978553E-2,1.3507772E-3,-4.424806E-2,-2.3134362E-2,-6.914018E-3,-3.110769E-2,1.434095E-2,3.6990363E-2,-1.0759167E-2,1.925216E-2,-3.3159837E-2,-5.4173842E-2,-1.704455E-2,-3.9240457E-2,-1.3684989E-2,6.323436E-3,-3.702784E-2,-1.2762522E-2,1.1482655E-2,3.2543194E-2,3.435996E-2,7.149633E-2,-1.936914E-2,1.3834092E-2,-2.5682319E-2,2.2099663E-2,-1.0606745E-2,-4.637609E-2,-3.9350167E-2,-6.5970205E-2,-4.852747E-2,-1.3795436E-2,-5.0611366E-2,-2.1488415E-2,-9.580124E-3,-3.625248E-2,-1.07585145E-2,1.2113209E-2,-1.5218669E-2,-4.1467953E-2,-4.3630645E-2,-8.00497E-3,5.925961E-3,2.0926844E-2,4.8259057E-2,2.9405255E-2,2.7952911E-2,4.0653657E-2,-7.6419294E-2,7.354569E-2,-3.1262603E-2,-1.9078141E-3,5.0508645E-3,2.81459E-2,-1.081506E-2,-8.858126E-2,1.4783799E-2,3.7261765E-2,1.4775192E-2,-1.1032197E-2,-7.989421E-3,-1.8401159E-2,-1.5989273E-3,-1.6040396E-2,-1.6251877E-2,-2.3608586E-2,-1.8028997E-2,-7.6859375E-3,-5.7416838E-3,-2.3286637E-4,-9.278297E-3,-1.8996965E-2,-3.6273417E-3,-1.574029E-2,-4.0766234E-3,2.2967348E-3,-1.7194735E-2,-8.768664E-3,-6.6279046E-2,-2.8285943E-3,1.6029122E-3,7.494545E-3,-3.427931E-4,-1.2237669E-2,-1.1264041E-2,-2.0066855E-2,-1.4714227E-2,3.217242E-2,-3.1075187E-3,1.2596924E-2,5.049321E-3,6.303323E-4,1.44270975E-2,5.8079474E-3,1.4149521E-2,4.432082E-2,9.713821E-3,-3.5224127E-4,7.1238033E-3,1.1695283E-2,1.1215206E-2,1.6242614E-2,-2.9096596E-3,-1.1227095E-1,2.3618424E-2,5.6912503E-3,-2.1566447E-2,-8.2558505E-3,-3.917491E-3,2.766552E-3,-2.4723925E-3,5.2111913E-3,1.1314226E-2,6.190945E-3,5.8089704E-3,-6.220092E-3,-5.567843E-2,-1.884313E-2,7.2352043E-3,1.156099E-3,1.7018145E-2,9.347797E-3],"categories":[],"categories_nodes":[],"categories_segments":[],"categories_sizes":[],"default_left":[0,0,0,0,0,0,0,0,0,0,0,0,0,0,0,0,0,0,0,0,0,0,0,0,0,0,0,0,0,0,0,0,0,0,0,0,0,0,0,0,0,0,0,0,0,0,0,0,0,0,0,0,0,0,0,0,0,0,0,0,0,0,0,0,0,0,0,0,0,0,0,0,0,0,0,0,0,0,0,0,0,0,0,0,0,0,0,0,0,0,0,0,0,0,0,0,0,0,0,0,0,0,0,0,0,0,0,0,0,0,0,0,0,0,0,0,0,0,0,0,0,0,0,0,0,0,0],"id":7,"left_children":[1,3,5,7,9,11,13,15,17,19,21,23,25,27,29,31,33,35,37,39,41,43,45,47,49,51,53,55,57,59,61,63,65,67,69,71,73,75,77,79,81,83,85,87,89,91,93,95,97,99,101,103,105,107,109,111,113,115,117,119,121,123,125,-1,-1,-1,-1,-1,-1,-1,-1,-1,-1,-1,-1,-1,-1,-1,-1,-1,-1,-1,-1,-1,-1,-1,-1,-1,-1,-1,-1,-1,-1,-1,-1,-1,-1,-1,-1,-1,-1,-1,-1,-1,-1,-1,-1,-1,-1,-1,-1,-1,-1,-1,-1,-1,-1,-1,-1,-1,-1,-1,-1,-1,-1,-1,-1],"loss_changes":[6.0332508E1,1.0488701E1,1.7275833E1,3.0369797E0,7.2496605E0,8.567028E0,2.4381771E1,2.1333542E0,1.0298905E0,3.8340275E0,1.8929672E0,3.490611E0,2.0156898E0,1.420576E1,5.8073673E0,2.731594E0,1.7871532E0,7.794061E-1,5.806637E-1,2.6212654E0,1.4318156E0,1.2756577E0,6.245261E-1,3.0433135E0,4.476471E-1,8.320389E-1,4.82749E-1,1.031955E1,2.1867285E0,2.528582E0,4.73357E0,5.3084445E0,1.7054949E0,2.1792884E0,8.511276E-1,1.874218E-1,4.809804E-1,4.3742132E-1,3.2745814E-1,1.6545858E0,6.4260435E-1,1.0222857E0,9.4183636E-1,8.030555E-1,1.0890045E0,4.6945226E-1,4.3436068E-1,1.5229377E0,9.1346645E-1,1.5779614E-1,6.9060373E-1,4.743843E-1,4.575653E-1,4.3352115E-1,4.3773937E-1,4.492777E0,2.4987717E0,1.7657664E0,4.7459078E-1,6.556257E-1,1.2809038E0,2.936974E0,1.6481724E0,0E0,0E0,0E0,0E0,0E0,0E0,0E0,0E0,0E0,0E0,0E0,0E0,0E0,0E0,0E0,0E0,0E0,0E0,0E0,0E0,0E0,0E0,0E0,0E0,0E0,0E0,0E0,0E0,0E0,0E0,0E0,0E0,0E0,0E0,0E0,0E0,0E0,0E0,0E0,0E0,0E0,0E0,0E0,0E0,0E0,0E0,0E0,0E0,0E0,0E0,0E0,0E0,0E0,0E0,0E0,0E0,0E0,0E0,0E0,0E0,0E0,0E0,0E0,0E0],"parents":[2147483647,0,0,1,1,2,2,3,3,4,4,5,5,6,6,7,7,8,8,9,9,10,10,11,11,12,12,13,13,14,14,15,15,16,16,17,17,18,18,19,19,20,20,21,21,22,22,23,23,24,24,25,25,26,26,27,27,28,28,29,29,30,30,31,31,32,32,33,33,34,34,35,35,36,36,37,37,38,38,39,39,40,40,41,41,42,42,43,43,44,44,45,45,46,46,47,47,48,48,49,49,50,50,51,51,52,52,53,53,54,54,55,55,56,56,57,57,58,58,59,59,60,60,61,61,62,62],"right_children":[2,4,6,8,10,12,14,16,18,20,22,24,26,28,30,32,34,36,38,40,42,44,46,48,50,52,54,56,58,60,62,64,66,68,70,72,74,76,78,80,82,84,86,88,90,92,94,96,98,100,102,104,106,108,110,112,114,116,118,120,122,124,126,-1,-1,-1,-1,-1,-1,-1,-1,-1,-1,-1,-1,-1,-1,-1,-1,-1,-1,-1,-1,-1,-1,-1,-1,-1,-1,-1,-1,-1,-1,-1,-1,-1,-1,-1,-1,-1,-1,-1,-1,-1,-1,-1,-1,-1,-1,-1,-1,-1,-1,-1,-1,-1,-1,-1,-1,-1,-1,-1,-1,-1,-1,-1,-1],"split_conditions":[1.942E3,1E0,1.551E3,2.9E1,1.7E3,3.322E3,5.863E3,2E0,1.75E3,5E0,6E0,2E0,2.493E3,3.278E3,2.6E1,3E1,1.8E1,2E0,2E0,1E0,2.8E1,1E0,2.6E1,3E1,9E0,2.9E1,1.7E1,3E1,3E1,4.1E1,8.16E3,2E0,1E0,3E0,2E0,2E0,1E0,1.7E1,6.7E1,7E0,4.264E2,6E0,6E0,6.2E1,1.373E3,1.548E3,1.5E1,1E0,5E0,1.179E3,3E0,3.53E3,1.485E3,3.1E1,5.1E1,2.6E1,6E0,3.812E3,3.9E-3,1E0,1.8E1,2.4E1,1.2E1,1.4775192E-2,-1.1032197E-2,-7.989421E-3,-1.8401159E-2,-1.5989273E-3,-1.6040396E-2,-1.6251877E-2,-2.3608586E-2,-1.8028997E-2,-7.6859375E-3,-5.7416838E-3,-2.3286637E-4,-9.278297E-3,-1.8996965E-2,-3.6273417E-3,-1.574029E-2,-4.0766234E-3,2.2967348E-3,-1.7194735E-2,-8.768664E-3,-6.6279046E-2,-2.8285943E-3,1.6029122E-3,7.494545E-3,-3.427931E-4,-1.2237669E-2,-1.1264041E-2,-2.0066855E-2,-1.4714227E-2,3.217242E-2,-3.1075187E-3,1.2596924E-2,5.049321E-3,6.303323E-4,1.44270975E-2,5.8079474E-3,1.4149521E-2,4.432082E-2,9.713821E-3,-3.5224127E-4,7.1238033E-3,1.1695283E-2,1.1215206E-2,1.6242614E-2,-2.9096596E-3,-1.1227095E-1,2.3618424E-2,5.6912503E-3,-2.1566447E-2,-8.2558505E-3,-3.917491E-3,2.766552E-3,-2.4723925E-3,5.2111913E-3,1.1314226E-2,6.190945E-3,5.8089704E-3,-6.220092E-3,-5.567843E-2,-1.884313E-2,7.2352043E-3,1.156099E-3,1.7018145E-2,9.347797E-3],"split_indices":[42,5,11,29,11,42,42,3,11,38,38,0,32,37,28,6,6,38,31,26,28,3,29,28,6,28,28,28,28,6,42,8,8,8,8,31,15,6,6,41,42,28,41,6,37,30,41,3,6,32,8,37,32,6,6,28,38,37,32,8,28,6,6,0,0,0,0,0,0,0,0,0,0,0,0,0,0,0,0,0,0,0,0,0,0,0,0,0,0,0,0,0,0,0,0,0,0,0,0,0,0,0,0,0,0,0,0,0,0,0,0,0,0,0,0,0,0,0,0,0,0,0,0,0,0,0,0],"split_type":[0,0,0,0,0,0,0,0,0,0,0,0,0,0,0,0,0,0,0,0,0,0,0,0,0,0,0,0,0,0,0,0,0,0,0,0,0,0,0,0,0,0,0,0,0,0,0,0,0,0,0,0,0,0,0,0,0,0,0,0,0,0,0,0,0,0,0,0,0,0,0,0,0,0,0,0,0,0,0,0,0,0,0,0,0,0,0,0,0,0,0,0,0,0,0,0,0,0,0,0,0,0,0,0,0,0,0,0,0,0,0,0,0,0,0,0,0,0,0,0,0,0,0,0,0,0,0],"sum_hessian":[2.91912E5,9.0112E4,2.018E5,2.9905E4,6.0207E4,8.9332E4,1.12468E5,1.9399E4,1.0506E4,4.2774E4,1.7433E4,6.7098E4,2.2234E4,6.7086E4,4.5382E4,9.165E3,1.0234E4,7.625E3,2.881E3,2.8299E4,1.4475E4,1.3179E4,4.254E3,5.7993E4,9.105E3,2.0661E4,1.573E3,4.969E4,1.7396E4,2.704E3,4.2678E4,3.387E3,5.778E3,4.537E3,5.697E3,7.12E2,6.913E3,1.755E3,1.126E3,2.3945E4,4.354E3,3.664E3,1.0811E4,2.23E3,1.0949E4,5.67E2,3.687E3,3.6512E4,2.1481E4,1.513E3,7.592E3,1.0241E4,1.042E4,2.1E1,1.552E3,2.9557E4,2.0133E4,1.0781E4,6.615E3,2.188E3,5.16E2,2.8789E4,1.3889E4,1.03E3,2.357E3,2.492E3,3.286E3,1.331E3,3.206E3,2.959E3,2.738E3,4.72E2,2.4E2,4.901E3,2.012E3,6.9E2,1.065E3,8.65E2,2.61E2,1.9427E4,4.518E3,1.087E3,3.267E3,2.2E1,3.642E3,7.085E3,3.726E3,1.439E3,7.91E2,9.488E3,1.461E3,5.48E2,1.9E1,3.522E3,1.65E2,9.48E3,2.7032E4,1.17E3,2.0311E4,1.498E3,1.5E1,6.919E3,6.73E2,7.416E3,2.825E3,8.39E3,2.03E3,1.8E1,3E0,1.417E3,1.35E2,2.492E3,2.7065E4,1.0057E4,1.0076E4,5.186E3,5.595E3,2.907E3,3.708E3,5.41E2,1.647E3,1.07E2,4.09E2,1.5528E4,1.3261E4,3.313E3,1.0576E4],"tree_param":{"num_deleted":"0","num_feature":"63","num_nodes":"127","size_leaf_vector":"1"}},{"base_weights":[-7.846746E-6,-1.9634102E-2,5.490569E-3,-4.0169004E-2,-1.644282E-2,2.5335227E-3,2.6545942E-2,-1.0737789E-1,-3.7556067E-2,-1.4616899E-2,-5.0759424E-2,-1.048176E-2,7.3091327E-3,2.2300487E-2,3.9803322E-2,-1.4064018E-1,-8.715341E-3,-3.3990085E-2,-7.418629E-2,1.3226971E-2,-1.8726608E-2,-4.316878E-2,-8.370038E-2,-1.240195E-3,-2.0233925E-2,2.5429267E-3,1.8423492E-2,4.178306E-2,1.9435776E-2,4.135117E-2,-6.1025727E-3,-1.516564E-1,-4.522278E-3,-2.3560118E-2,1.17015146E-1,8.4135536E-4,-3.8776975E-2,-6.1320756E-2,-9.820703E-2,8.586101E-2,-6.701921E-3,-1.2510087E-2,-5.995538E-2,-2.8211094E-2,-5.0743043E-2,-7.540317E-2,-1.2067702E-1,-1.2655674E-2,7.962442E-3,-5.0765835E-2,-1.1624289E-2,2.2548229E-2,3.0193718E-5,1.4686964E-2,2.9602516E-2,7.79452E-2,3.7161432E-2,3.0699486E-2,1.4426999E-2,2.2158945E-2,4.3969885E-2,3.437581E-3,-3.9180256E-2,-5.3768314E-2,-2.597394E-2,6.2204912E-2,-2.8500462E-2,-1.6747516E-2,3.26966E-2,4.499503E-2,-6.195781E-3,-9.398725E-3,-2.1240506E-2,-6.7408095E-5,-1.9617999E-2,-2.6893897E-2,-3.8475975E-2,6.348522E-2,1.9968247E-2,8.013991E-3,-3.5077394E-3,2.1195414E-3,-5.8903364E-3,-1.4070037E-2,-2.2717992E-2,-6.024244E-3,-1.0599956E-2,-1.9915959E-2,-1.353222E-2,-1.8753394E-2,-2.9912774E-2,-3.218266E-2,-4.6588466E-2,-2.067502E-3,-7.031055E-3,9.866879E-3,1.7265766E-3,-2.107719E-2,-1.1504769E-2,-1.5532096E-3,-1.0874115E-2,1.3956659E-2,2.5983267E-3,1.0720699E-3,-6.708267E-3,5.423018E-3,1.1513568E-3,7.3303254E-3,1.1896976E-2,2.0187676E-2,3.8042214E-2,8.750706E-3,1.3764857E-2,1.0944588E-2,-8.423896E-4,5.2987626E-3,-9.953387E-4,9.509092E-3,-3.8160884E-3,1.0911946E-2,1.5302594E-2,-4.8545253E-4,1.9852698E-2,-1.4146543E-2,3.0443395E-2],"categories":[],"categories_nodes":[],"categories_segments":[],"categories_sizes":[],"default_left":[0,0,0,0,0,0,0,0,0,0,0,0,0,0,0,0,0,0,0,0,0,0,0,0,0,0,0,0,0,0,0,0,0,0,0,0,0,0,0,0,0,0,0,0,0,0,0,0,0,0,0,0,0,0,0,0,0,0,0,0,0,0,0,0,0,0,0,0,0,0,0,0,0,0,0,0,0,0,0,0,0,0,0,0,0,0,0,0,0,0,0,0,0,0,0,0,0,0,0,0,0,0,0,0,0,0,0,0,0,0,0,0,0,0,0,0,0,0,0,0,0,0,0,0,0],"id":8,"left_children":[1,3,5,7,9,11,13,15,17,19,21,23,25,27,29,31,33,35,37,39,41,43,45,47,49,51,53,55,57,59,61,63,65,67,-1,69,71,73,75,77,79,81,83,85,87,89,91,93,95,97,99,101,103,105,107,109,111,113,115,117,119,121,123,-1,-1,-1,-1,-1,-1,-1,-1,-1,-1,-1,-1,-1,-1,-1,-1,-1,-1,-1,-1,-1,-1,-1,-1,-1,-1,-1,-1,-1,-1,-1,-1,-1,-1,-1,-1,-1,-1,-1,-1,-1,-1,-1,-1,-1,-1,-1,-1,-1,-1,-1,-1,-1,-1,-1,-1,-1,-1,-1,-1,-1,-1],"loss_changes":[3.1501406E1,4.185829E0,1.419747E1,1.5048323E0,3.4638863E0,1.2428152E1,1.5796127E0,1.0522134E0,1.0779886E0,6.007946E0,6.94757E-1,4.837269E0,7.748785E0,1.1864195E0,4.841385E-1,3.5919523E-1,4.9459597E-1,1.2572088E0,2.205038E-1,9.775651E0,1.1724697E1,2.5597095E-1,1.51052E-1,2.895243E0,6.8642235E0,5.146285E0,1.8333836E0,4.5269442E-1,1.0459313E0,3.3013153E-1,7.050595E-2,3.8280535E-1,3.839289E-1,3.4821847E-1,0E0,2.9266531E0,1.5789089E0,1.19418025E-1,5.383587E-2,3.5149508E0,8.8414097E-1,5.544554E0,1.2305984E0,4.364544E-2,1.2986445E-1,1.2819433E-1,2.695024E-2,7.642559E-1,8.393442E-1,1.3874559E0,3.233685E0,3.8029866E0,7.216366E0,1.2100778E0,5.7043934E-1,1.5178883E-1,1.6727853E-1,1.106061E0,7.3725533E-1,2.6421782E-1,3.080654E-1,5.5297863E-2,6.0871877E-2,0E0,0E0,0E0,0E0,0E0,0E0,0E0,0E0,0E0,0E0,0E0,0E0,0E0,0E0,0E0,0E0,0E0,0E0,0E0,0E0,0E0,0E0,0E0,0E0,0E0,0E0,0E0,0E0,0E0,0E0,0E0,0E0,0E0,0E0,0E0,0E0,0E0,0E0,0E0,0E0,0E0,0E0,0E0,0E0,0E0,0E0,0E0,0E0,0E0,0E0,0E0,0E0,0E0,0E0,0E0,0E0,0E0,0E0,0E0,0E0,0E0,0E0],"parents":[2147483647,0,0,1,1,2,2,3,3,4,4,5,5,6,6,7,7,8,8,9,9,10,10,11,11,12,12,13,13,14,14,15,15,16,16,17,17,18,18,19,19,20,20,21,21,22,22,23,23,24,24,25,25,26,26,27,27,28,28,29,29,30,30,31,31,32,32,33,33,35,35,36,36,37,37,38,38,39,39,40,40,41,41,42,42,43,43,44,44,45,45,46,46,47,47,48,48,49,49,50,50,51,51,52,52,53,53,54,54,55,55,56,56,57,57,58,58,59,59,60,60,61,61,62,62],"right_children":[2,4,6,8,10,12,14,16,18,20,22,24,26,28,30,32,34,36,38,40,42,44,46,48,50,52,54,56,58,60,62,64,66,68,-1,70,72,74,76,78,80,82,84,86,88,90,92,94,96,98,100,102,104,106,108,110,112,114,116,118,120,122,124,-1,-1,-1,-1,-1,-1,-1,-1,-1,-1,-1,-1,-1,-1,-1,-1,-1,-1,-1,-1,-1,-1,-1,-1,-1,-1,-1,-1,-1,-1,-1,-1,-1,-1,-1,-1,-1,-1,-1,-1,-1,-1,-1,-1,-1,-1,-1,-1,-1,-1,-1,-1,-1,-1,-1,-1,-1,-1,-1,-1,-1,-1],"split_conditions":[1.038E3,2.6E1,2E0,2.3E1,7E1,2.8E1,3E0,1.6960983E1,6.4E1,1E0,8.1E1,1.75E3,4E0,8E0,5.1E1,7.2E3,1E0,1E0,7.2E1,5.5E1,3.6E1,2.442E2,3.657E2,2.562E3,3.544E3,8E0,6E0,1.978E3,1E0,2.7E1,1.883E3,1E0,7.877E3,3.0755396E1,1.17015146E-1,4.8E1,3.3E1,1.62E2,8.1E1,4.5E1,2.98E2,2E0,3.9E1,7.5E1,1E0,8.6E1,8.5E1,2.8E1,6E0,1E0,4.4E1,4E0,3E0,2E0,4.7E1,1.353E2,8.684E1,5E1,2.9E1,1.883E3,3.449E3,1.868E3,3.671E3,-5.3768314E-2,-2.597394E-2,6.2204912E-2,-2.8500462E-2,-1.6747516E-2,3.26966E-2,4.499503E-2,-6.195781E-3,-9.398725E-3,-2.1240506E-2,-6.7408095E-5,-1.9617999E-2,-2.6893897E-2,-3.8475975E-2,6.348522E-2,1.9968247E-2,8.013991E-3,-3.5077394E-3,2.1195414E-3,-5.8903364E-3,-1.4070037E-2,-2.2717992E-2,-6.024244E-3,-1.0599956E-2,-1.9915959E-2,-1.353222E-2,-1.8753394E-2,-2.9912774E-2,-3.218266E-2,-4.6588466E-2,-2.067502E-3,-7.031055E-3,9.866879E-3,1.7265766E-3,-2.107719E-2,-1.1504769E-2,-1.5532096E-3,-1.0874115E-2,1.3956659E-2,2.5983267E-3,1.0720699E-3,-6.708267E-3,5.423018E-3,1.1513568E-3,7.3303254E-3,1.1896976E-2,2.0187676E-2,3.8042214E-2,8.750706E-3,1.3764857E-2,1.0944588E-2,-8.423896E-4,5.2987626E-3,-9.953387E-4,9.509092E-3,-3.8160884E-3,1.0911946E-2,1.5302594E-2,-4.8545253E-4,1.9852698E-2,-1.4146543E-2,3.0443395E-2],"split_indices":[37,29,0,28,6,28,0,43,6,8,6,11,1,6,6,32,22,8,6,6,6,42,42,42,42,6,1,37,3,28,11,0,32,43,0,6,6,37,6,6,42,8,6,6,27,6,6,6,6,27,6,8,8,9,28,10,10,6,6,11,42,11,37,0,0,0,0,0,0,0,0,0,0,0,0,0,0,0,0,0,0,0,0,0,0,0,0,0,0,0,0,0,0,0,0,0,0,0,0,0,0,0,0,0,0,0,0,0,0,0,0,0,0,0,0,0,0,0,0,0,0,0,0,0,0],"split_type":[0,0,0,0,0,0,0,0,0,0,0,0,0,0,0,0,0,0,0,0,0,0,0,0,0,0,0,0,0,0,0,0,0,0,0,0,0,0,0,0,0,0,0,0,0,0,0,0,0,0,0,0,0,0,0,0,0,0,0,0,0,0,0,0,0,0,0,0,0,0,0,0,0,0,0,0,0,0,0,0,0,0,0,0,0,0,0,0,0,0,0,0,0,0,0,0,0,0,0,0,0,0,0,0,0,0,0,0,0,0,0,0,0,0,0,0,0,0,0,0,0,0,0,0,0],"sum_hessian":[2.91912E5,6.3883E4,2.28029E5,8.591E3,5.5292E4,1.99949E5,2.808E4,3.2E2,8.271E3,5.25E4,2.792E3,5.3672E4,1.46277E5,2.1271E4,6.809E3,2.39E2,8.1E1,7.539E3,7.32E2,6.752E3,4.5748E4,2.271E3,5.21E2,2.7558E4,2.6114E4,1.02376E5,4.3901E4,2.725E3,1.8546E4,6.587E3,2.22E2,2.21E2,1.8E1,7.9E1,2E0,9.11E2,6.628E3,4.79E2,2.53E2,1.453E3,5.299E3,3.9755E4,5.993E3,7.65E2,1.506E3,4.28E2,9.3E1,1.23E4,1.5258E4,5.743E3,2.0371E4,1.1423E4,9.0953E4,3.2905E4,1.0996E4,3.07E2,2.418E3,5.707E3,1.2839E4,7.92E2,5.795E3,1.73E2,4.9E1,1.54E2,6.7E1,5E0,1.3E1,6.4E1,1.5E1,1.14E2,7.97E2,5.379E3,1.249E3,3E1,4.49E2,2E2,5.3E1,1.92E2,1.261E3,6.88E2,4.611E3,1.0608E4,2.9147E4,3.281E3,2.712E3,3.59E2,4.06E2,3.96E2,1.11E3,2.82E2,1.46E2,7E1,2.3E1,8.016E3,4.284E3,1.24E3,1.4018E4,2.233E3,3.51E3,1.6145E4,4.226E3,4.189E3,7.234E3,7.8527E4,1.2426E4,2.5071E4,7.834E3,7.265E3,3.731E3,2.54E2,5.3E1,1.264E3,1.154E3,4.867E3,8.4E2,1.0859E4,1.98E3,6.22E2,1.7E2,2.79E3,3.005E3,1.61E2,1.2E1,4.7E1,2E0],"tree_param":{"num_deleted":"0","num_feature":"63","num_nodes":"125","size_leaf_vector":"1"}},{"base_weights":[-5.3585477E-6,-1.0431897E-2,6.069605E-3,-1.6514739E-2,1.665396E-3,1.9260896E-2,3.208265E-3,-1.2569933E-2,-3.4078166E-2,1.07354885E-2,-1.0616599E-2,2.5865989E-2,3.7159114E-3,6.262556E-3,-2.3402203E-2,-1.847295E-2,-2.7926622E-3,-2.433576E-2,-4.643737E-2,3.649223E-2,1.7171551E-3,7.145413E-3,-2.9050142E-2,4.397828E-2,2.1030448E-2,1.843125E-2,-6.278053E-3,3.843408E-2,3.1024169E-3,-1.1174609E-2,-4.7238234E-2,-2.1530841E-3,-2.1637538E-2,-9.344511E-2,-2.0400418E-3,-4.126817E-3,-3.3859804E-2,5.644792E-4,-5.0762042E-2,1.5469244E-1,2.7398055E-2,1.5501881E-2,-2.7770253E-2,2.3617042E-2,-2.5623407E-2,-1.1859991E-2,-4.1527387E-2,5.3041067E-2,3.536281E-2,2.9187666E-2,-8.091385E-5,3.455865E-2,1.1004794E-2,1.6286569E-2,-2.4415616E-2,7.547263E-2,2.9437348E-2,1.206935E-2,-2.097876E-3,-2.0786572E-2,6.1639175E-3,-6.567789E-2,-2.472575E-2,1.3844179E-3,-9.225885E-3,-4.673925E-3,-9.89439E-3,1.3100857E-2,-3.380748E-2,3.3872295E-3,-1.7365579E-3,8.53448E-3,-6.8392595E-3,-4.9995366E-3,-1.7273908E-2,1.6457796E-2,-2.8284572E-3,-1.2489104E-2,-1.7765045E-2,8.927995E-2,3.0527858E-2,1.718683E-2,3.5609652E-3,9.933855E-3,9.216414E-4,-5.5908468E-3,-1.5349582E-2,1.8571978E-2,4.5262836E-3,-1.3168919E-2,-5.4150936E-3,1.169345E-3,-7.786335E-3,-9.7870175E-3,-1.7212532E-2,2.1812387E-2,1.4485373E-2,-9.154138E-2,1.0727512E-2,1.262275E-2,7.1479464E-3,2.0380516E-3,-6.353347E-3,1.0798591E-1,1.0124628E-2,-4.4554973E-4,6.442821E-3,8.997445E-3,2.1780164E-4,-4.40355E-3,-1.5062211E-2,3.9259154E-2,1.9847505E-2,1.3676671E-2,6.854952E-3,5.7702106E-3,-1.9052434E-3,6.9520937E-4,-3.7299625E-3,-1.2145563E-2,-4.0710415E-3,-5.7617604E-4,5.1018577E-3,-1.612151E-2,-2.6584208E-2,-3.938383E-3,-1.1061075E-2],"categories":[],"categories_nodes":[],"categories_segments":[],"categories_sizes":[],"default_left":[0,0,0,0,0,0,0,0,0,0,0,0,0,0,0,0,0,0,0,0,0,0,0,0,0,0,0,0,0,0,0,0,0,0,0,0,0,0,0,0,0,0,0,0,0,0,0,0,0,0,0,0,0,0,0,0,0,0,0,0,0,0,0,0,0,0,0,0,0,0,0,0,0,0,0,0,0,0,0,0,0,0,0,0,0,0,0,0,0,0,0,0,0,0,0,0,0,0,0,0,0,0,0,0,0,0,0,0,0,0,0,0,0,0,0,0,0,0,0,0,0,0,0,0,0,0,0],"id":9,"left_children":[1,3,5,7,9,11,13,15,17,19,21,23,25,27,29,31,33,35,37,39,41,43,45,47,49,51,53,55,57,59,61,63,65,67,69,71,73,75,77,79,81,83,85,87,89,91,93,95,97,99,101,103,105,107,109,111,113,115,117,119,121,123,125,-1,-1,-1,-1,-1,-1,-1,-1,-1,-1,-1,-1,-1,-1,-1,-1,-1,-1,-1,-1,-1,-1,-1,-1,-1,-1,-1,-1,-1,-1,-1,-1,-1,-1,-1,-1,-1,-1,-1,-1,-1,-1,-1,-1,-1,-1,-1,-1,-1,-1,-1,-1,-1,-1,-1,-1,-1,-1,-1,-1,-1,-1,-1,-1],"loss_changes":[1.8490078E1,7.908086E0,6.9618483E0,4.954094E0,4.005793E0,3.3755846E0,1.2319248E1,3.3702965E0,1.5780249E0,4.804477E0,5.001499E0,2.0198708E0,1.4420837E0,1.3823067E1,4.5479546E0,1.880475E0,1.4997771E0,1.4118271E0,1.1749144E0,5.761704E0,6.228046E0,4.1999054E0,1.6072927E0,3.7767315E-1,3.1364622E0,4.7462535E-1,2.3905184E0,4.0501385E0,5.773183E0,1.7193649E0,2.194789E0,1.1450402E0,2.095251E0,4.8257565E-1,1.089668E0,1.4305269E0,2.03261E0,2.6528177E-1,4.0618896E-1,2.8669214E0,2.3117573E0,2.2854314E0,1.0420787E0,1.6901388E0,3.5941887E-1,7.0059747E-1,6.109605E-1,2.1791077E-1,3.469615E-1,9.067087E-1,7.36456E-1,3.1726885E-1,3.553769E-1,5.5508405E-1,8.1244576E-1,1.2171907E0,1.0401735E0,5.99771E0,3.5759199E0,9.4292593E-1,3.226009E-1,7.9158497E-1,3.3530128E-1,0E0,0E0,0E0,0E0,0E0,0E0,0E0,0E0,0E0,0E0,0E0,0E0,0E0,0E0,0E0,0E0,0E0,0E0,0E0,0E0,0E0,0E0,0E0,0E0,0E0,0E0,0E0,0E0,0E0,0E0,0E0,0E0,0E0,0E0,0E0,0E0,0E0,0E0,0E0,0E0,0E0,0E0,0E0,0E0,0E0,0E0,0E0,0E0,0E0,0E0,0E0,0E0,0E0,0E0,0E0,0E0,0E0,0E0,0E0,0E0,0E0,0E0,0E0,0E0],"parents":[2147483647,0,0,1,1,2,2,3,3,4,4,5,5,6,6,7,7,8,8,9,9,10,10,11,11,12,12,13,13,14,14,15,15,16,16,17,17,18,18,19,19,20,20,21,21,22,22,23,23,24,24,25,25,26,26,27,27,28,28,29,29,30,30,31,31,32,32,33,33,34,34,35,35,36,36,37,37,38,38,39,39,40,40,41,41,42,42,43,43,44,44,45,45,46,46,47,47,48,48,49,49,50,50,51,51,52,52,53,53,54,54,55,55,56,56,57,57,58,58,59,59,60,60,61,61,62,62],"right_children":[2,4,6,8,10,12,14,16,18,20,22,24,26,28,30,32,34,36,38,40,42,44,46,48,50,52,54,56,58,60,62,64,66,68,70,72,74,76,78,80,82,84,86,88,90,92,94,96,98,100,102,104,106,108,110,112,114,116,118,120,122,124,126,-1,-1,-1,-1,-1,-1,-1,-1,-1,-1,-1,-1,-1,-1,-1,-1,-1,-1,-1,-1,-1,-1,-1,-1,-1,-1,-1,-1,-1,-1,-1,-1,-1,-1,-1,-1,-1,-1,-1,-1,-1,-1,-1,-1,-1,-1,-1,-1,-1,-1,-1,-1,-1,-1,-1,-1,-1,-1,-1,-1,-1,-1,-1,-1],"split_conditions":[2E0,1E0,9E0,1E0,2.9E1,3E0,3E0,5E0,2E0,2E0,1E0,5E0,4E0,1.3E1,1.1E1,1E0,2.1E1,2.6E1,7E0,6.429E2,1.7E1,5.9E1,3.3E1,4E0,4E0,7E0,5E0,2.154E3,1E0,4.4E1,3E1,6.5E1,1.719E3,8E0,1E0,2E0,1E0,4E0,1.8E1,2.5E1,2.4E1,3E0,2.1E1,4.3E1,2.7E1,1.344E3,5.967E2,2.18E3,6.083E1,2.309E3,7E0,4.188E2,2.3196262E1,4E0,7E0,1.326E3,1.1E1,4.7E1,2.8E1,2.0403166E1,4.9E1,1.773E3,1.2E1,1.3844179E-3,-9.225885E-3,-4.673925E-3,-9.89439E-3,1.3100857E-2,-3.380748E-2,3.3872295E-3,-1.7365579E-3,8.53448E-3,-6.8392595E-3,-4.9995366E-3,-1.7273908E-2,1.6457796E-2,-2.8284572E-3,-1.2489104E-2,-1.7765045E-2,8.927995E-2,3.0527858E-2,1.718683E-2,3.5609652E-3,9.933855E-3,9.216414E-4,-5.5908468E-3,-1.5349582E-2,1.8571978E-2,4.5262836E-3,-1.3168919E-2,-5.4150936E-3,1.169345E-3,-7.786335E-3,-9.7870175E-3,-1.7212532E-2,2.1812387E-2,1.4485373E-2,-9.154138E-2,1.0727512E-2,1.262275E-2,7.1479464E-3,2.0380516E-3,-6.353347E-3,1.0798591E-1,1.0124628E-2,-4.4554973E-4,6.442821E-3,8.997445E-3,2.1780164E-4,-4.40355E-3,-1.5062211E-2,3.9259154E-2,1.9847505E-2,1.3676671E-2,6.854952E-3,5.7702106E-3,-1.9052434E-3,6.9520937E-4,-3.7299625E-3,-1.2145563E-2,-4.0710415E-3,-5.7617604E-4,5.1018577E-3,-1.612151E-2,-2.6584208E-2,-3.938383E-3,-1.1061075E-2],"split_indices":[1,0,6,26,6,3,8,38,3,8,8,6,8,6,6,3,29,6,6,42,6,6,6,6,8,6,6,37,3,28,29,6,11,6,3,8,8,8,6,6,6,8,6,6,29,42,42,37,2,37,6,37,43,6,6,37,6,6,6,43,28,11,6,0,0,0,0,0,0,0,0,0,0,0,0,0,0,0,0,0,0,0,0,0,0,0,0,0,0,0,0,0,0,0,0,0,0,0,0,0,0,0,0,0,0,0,0,0,0,0,0,0,0,0,0,0,0,0,0,0,0,0,0,0,0,0,0],"split_type":[0,0,0,0,0,0,0,0,0,0,0,0,0,0,0,0,0,0,0,0,0,0,0,0,0,0,0,0,0,0,0,0,0,0,0,0,0,0,0,0,0,0,0,0,0,0,0,0,0,0,0,0,0,0,0,0,0,0,0,0,0,0,0,0,0,0,0,0,0,0,0,0,0,0,0,0,0,0,0,0,0,0,0,0,0,0,0,0,0,0,0,0,0,0,0,0,0,0,0,0,0,0,0,0,0,0,0,0,0,0,0,0,0,0,0,0,0,0,0,0,0,0,0,0,0,0,0],"sum_hessian":[2.91912E5,1.07466E5,1.84446E5,7.1509E4,3.5957E4,3.2876E4,1.5157E5,5.8395E4,1.3114E4,2.0683E4,1.5274E4,2.3072E4,9.804E3,1.35965E5,1.5605E4,3.6411E4,2.1984E4,7.335E3,5.779E3,5.363E3,1.532E4,7.779E3,7.495E3,4.86E3,1.8212E4,3.965E3,5.839E3,1.216E4,1.23805E5,1.0315E4,5.29E3,5.914E3,3.0497E4,1.8E2,2.1804E4,2.35E3,4.985E3,4.87E2,5.292E3,3.82E2,4.981E3,1.044E4,4.88E3,5.177E3,2.602E3,3.153E3,4.342E3,2.366E3,2.494E3,1.3136E4,5.076E3,1.249E3,2.716E3,2.602E3,3.237E3,2.375E3,9.785E3,4.5444E4,7.8361E4,6.636E3,3.679E3,2.907E3,2.383E3,4.783E3,1.131E3,1.9882E4,1.0615E4,2.2E1,1.58E2,4.785E3,1.7019E4,8.56E2,1.494E3,2.891E3,2.094E3,7.5E1,4.12E2,2.547E3,2.745E3,1.02E2,2.8E2,1.702E3,3.279E3,4.319E3,6.121E3,3.511E3,1.369E3,9.42E2,4.235E3,7.61E2,1.841E3,1.489E3,1.664E3,2.782E3,1.56E3,4.58E2,1.908E3,2E0,2.492E3,3.857E3,9.279E3,3.829E3,1.247E3,2E0,1.247E3,1.239E3,1.477E3,1.383E3,1.219E3,2.351E3,8.86E2,3.4E2,2.035E3,2.833E3,6.952E3,3.2718E4,1.2726E4,5.4906E4,2.3455E4,1.778E3,4.858E3,2.108E3,1.571E3,1.914E3,9.93E2,1.22E3,1.163E3],"tree_param":{"num_deleted":"0","num_feature":"63","num_nodes":"127","size_leaf_vector":"1"}},{"base_weights":[-3.3487586E-6,-6.661396E-3,5.908466E-3,-1.7125828E-2,-2.798658E-3,-2.2070918E-2,7.1496447E-3,-4.1617904E-2,-1.4574927E-2,2.0894099E-3,-1.0171528E-2,-5.130341E-2,-1.35576725E-2,4.570973E-3,1.9546874E-2,-3.463691E-2,-8.608725E-2,-1.7625362E-2,6.3627365E-4,1.5678773E-2,-1.4477081E-3,4.8534786E-3,-1.4738633E-2,-4.1709103E-2,-1.19126916E-1,-8.203621E-3,-4.744456E-2,8.618176E-3,-3.3902966E-3,2.135742E-2,-3.8769733E-2,-9.390521E-2,-3.0757098E-2,-1.3610797E-1,-6.1977413E-2,-1.89342E-2,2.0260047E-2,6.016893E-3,-8.081734E-3,2.1656057E-2,6.387911E-3,2.866453E-3,-2.2424756E-2,1.9995207E-2,-5.123302E-3,-9.966628E-3,-2.807244E-2,-6.546276E-3,-5.9161443E-2,1.0053863E-1,-1.3375983E-1,1.6805232E-2,-1.2269276E-2,-7.915201E-2,-3.6600713E-2,1.50102135E-2,2.9972065E-3,4.944018E-3,-1.1128756E-2,3.3365138E-2,1.793828E-2,-2.6087305E-2,-6.7778364E-2,1.1704547E-2,-3.3625424E-2,-1.1777603E-2,-1.7743303E-3,-8.522544E-2,-3.6793314E-2,-1.9681297E-2,3.3782676E-3,-4.0446185E-3,-8.066376E-3,1.4387041E-2,7.132579E-4,-9.3979004E-5,3.966757E-3,-1.0494612E-2,4.4604126E-4,1.2145537E-2,4.9877064E-3,7.536339E-4,5.6968997E-3,1.1502184E-2,-7.3688885E-4,-3.716337E-3,-1.2526949E-2,1.7562803E-2,4.303242E-3,2.0970085E-3,-6.0325847E-3,9.349803E-3,-5.059973E-3,-5.8605564E-3,-1.44342985E-2,-2.6645554E-2,4.9790842E-3,-1.2284736E-2,-5.6492254E-2,8.248034E-2,-6.3078334E-3,-7.113764E-2,-3.4863785E-2,1.225054E-2,-3.0796907E-3,-1.5197791E-3,-1.6846675E-2,-2.1448605E-2,-5.6250744E-2,-5.772204E-3,-1.5509333E-2,8.988221E-3,1.9968036E-3,3.6171575E-3,-4.215526E-3,5.033837E-4,5.5781687E-3,-4.780382E-3,2.0530624E-3,1.3057155E-2,7.170952E-3,6.39652E-3,5.1868294E-4,-1.0544473E-2,9.2071E-4,-1.3568716E-2,-3.5891976E-2],"categories":[],"categories_nodes":[],"categories_segments":[],"categories_sizes":[],"default_left":[0,0,0,0,0,0,0,0,0,0,0,0,0,0,0,0,0,0,0,0,0,0,0,0,0,0,0,0,0,0,0,0,0,0,0,0,0,0,0,0,0,0,0,0,0,0,0,0,0,0,0,0,0,0,0,0,0,0,0,0,0,0,0,0,0,0,0,0,0,0,0,0,0,0,0,0,0,0,0,0,0,0,0,0,0,0,0,0,0,0,0,0,0,0,0,0,0,0,0,0,0,0,0,0,0,0,0,0,0,0,0,0,0,0,0,0,0,0,0,0,0,0,0,0,0,0,0],"id":10,"left_children":[1,3,5,7,9,11,13,15,17,19,21,23,25,27,29,31,33,35,37,39,41,43,45,47,49,51,53,55,57,59,61,63,65,67,69,71,73,75,77,79,81,83,85,87,89,91,93,95,97,99,101,103,105,107,109,111,113,115,117,119,121,123,125,-1,-1,-1,-1,-1,-1,-1,-1,-1,-1,-1,-1,-1,-1,-1,-1,-1,-1,-1,-1,-1,-1,-1,-1,-1,-1,-1,-1,-1,-1,-1,-1,-1,-1,-1,-1,-1,-1,-1,-1,-1,-1,-1,-1,-1,-1,-1,-1,-1,-1,-1,-1,-1,-1,-1,-1,-1,-1,-1,-1,-1,-1,-1,-1],"loss_changes":[1.1490069E1,5.5494814E0,5.369779E0,2.3119755E0,3.6139488E0,1.6338389E0,4.73299E0,1.0807643E0,1.5555968E0,2.898522E0,2.7433934E0,9.5874715E-1,9.2273754E-1,3.9491162E0,2.6925077E0,6.9133043E-1,5.619986E-1,1.3850679E0,2.627819E-1,6.914835E-1,4.3302298E0,1.4080349E0,1.950522E0,7.967746E-1,6.016731E-1,4.4707817E-1,2.3572147E-1,2.9194384E0,2.6642044E0,1.0145531E0,2.80779E-1,4.5141256E-1,5.9852505E-1,2.6998043E-1,8.600569E-2,1.1701832E0,4.6198955E-1,1.5800673E-1,5.50366E-1,7.170932E-1,2.3815404E-1,7.493795E0,1.5831723E0,8.0558276E-1,1.020113E0,6.409025E0,1.3815694E0,8.2402146E-1,2.0338686E0,2.6018545E-1,2.844131E-1,4.0048295E-1,1.1949966E0,1.326046E-1,1.350277E-1,4.7484865E0,6.6786995E0,8.8664985E-1,1.8502004E0,5.2560854E-1,1.0555916E0,1.417104E-1,2.6706898E-1,0E0,0E0,0E0,0E0,0E0,0E0,0E0,0E0,0E0,0E0,0E0,0E0,0E0,0E0,0E0,0E0,0E0,0E0,0E0,0E0,0E0,0E0,0E0,0E0,0E0,0E0,0E0,0E0,0E0,0E0,0E0,0E0,0E0,0E0,0E0,0E0,0E0,0E0,0E0,0E0,0E0,0E0,0E0,0E0,0E0,0E0,0E0,0E0,0E0,0E0,0E0,0E0,0E0,0E0,0E0,0E0,0E0,0E0,0E0,0E0,0E0,0E0,0E0,0E0],"parents":[2147483647,0,0,1,1,2,2,3,3,4,4,5,5,6,6,7,7,8,8,9,9,10,10,11,11,12,12,13,13,14,14,15,15,16,16,17,17,18,18,19,19,20,20,21,21,22,22,23,23,24,24,25,25,26,26,27,27,28,28,29,29,30,30,31,31,32,32,33,33,34,34,35,35,36,36,37,37,38,38,39,39,40,40,41,41,42,42,43,43,44,44,45,45,46,46,47,47,48,48,49,49,50,50,51,51,52,52,53,53,54,54,55,55,56,56,57,57,58,58,59,59,60,60,61,61,62,62],"right_children":[2,4,6,8,10,12,14,16,18,20,22,24,26,28,30,32,34,36,38,40,42,44,46,48,50,52,54,56,58,60,62,64,66,68,70,72,74,76,78,80,82,84,86,88,90,92,94,96,98,100,102,104,106,108,110,112,114,116,118,120,122,124,126,-1,-1,-1,-1,-1,-1,-1,-1,-1,-1,-1,-1,-1,-1,-1,-1,-1,-1,-1,-1,-1,-1,-1,-1,-1,-1,-1,-1,-1,-1,-1,-1,-1,-1,-1,-1,-1,-1,-1,-1,-1,-1,-1,-1,-1,-1,-1,-1,-1,-1,-1,-1,-1,-1,-1,-1,-1,-1,-1,-1,-1,-1,-1,-1],"split_conditions":[5E0,2.7E1,2.6E1,2.4E1,2E0,2.1E1,9.375E1,4.7E1,4E0,1.6E1,9E0,4.1E1,4.4E1,2E0,3E1,1.5E1,2.4E1,1.58E3,1.755E3,2E0,2E0,4E0,3E0,6.923E0,2.817E2,1E0,2.5E1,2.6E1,1.551E3,7E0,3.3E1,7E0,2E0,1.6E1,1.532E3,1.46E3,1.6E1,5E0,4.58E3,1.658E3,1.501E3,2.5E1,2E1,1.018E3,6E0,1.5E1,1.2E1,1.4E1,2.2E1,1.28E2,1.5E1,4E1,2.6E1,1.945E3,1.789E3,2E0,1E0,4.7E1,6.533E3,2E0,2E0,1.495E3,2.044E3,1.1704547E-2,-3.3625424E-2,-1.1777603E-2,-1.7743303E-3,-8.522544E-2,-3.6793314E-2,-1.9681297E-2,3.3782676E-3,-4.0446185E-3,-8.066376E-3,1.4387041E-2,7.132579E-4,-9.3979004E-5,3.966757E-3,-1.0494612E-2,4.4604126E-4,1.2145537E-2,4.9877064E-3,7.536339E-4,5.6968997E-3,1.1502184E-2,-7.3688885E-4,-3.716337E-3,-1.2526949E-2,1.7562803E-2,4.303242E-3,2.0970085E-3,-6.0325847E-3,9.349803E-3,-5.059973E-3,-5.8605564E-3,-1.44342985E-2,-2.6645554E-2,4.9790842E-3,-1.2284736E-2,-5.6492254E-2,8.248034E-2,-6.3078334E-3,-7.113764E-2,-3.4863785E-2,1.225054E-2,-3.0796907E-3,-1.5197791E-3,-1.6846675E-2,-2.1448605E-2,-5.6250744E-2,-5.772204E-3,-1.5509333E-2,8.988221E-3,1.9968036E-3,3.6171575E-3,-4.215526E-3,5.033837E-4,5.5781687E-3,-4.780382E-3,2.0530624E-3,1.3057155E-2,7.170952E-3,6.39652E-3,5.1868294E-4,-1.0544473E-2,9.2071E-4,-1.3568716E-2,-3.5891976E-2],"split_indices":[38,29,28,29,3,29,10,6,1,6,6,6,6,3,6,28,28,30,11,9,8,8,8,10,37,8,28,6,11,6,6,28,31,28,30,11,6,1,42,37,39,6,6,37,6,6,6,28,6,2,28,6,6,11,11,8,8,28,42,9,9,30,37,0,0,0,0,0,0,0,0,0,0,0,0,0,0,0,0,0,0,0,0,0,0,0,0,0,0,0,0,0,0,0,0,0,0,0,0,0,0,0,0,0,0,0,0,0,0,0,0,0,0,0,0,0,0,0,0,0,0,0,0,0,0,0,0],"split_type":[0,0,0,0,0,0,0,0,0,0,0,0,0,0,0,0,0,0,0,0,0,0,0,0,0,0,0,0,0,0,0,0,0,0,0,0,0,0,0,0,0,0,0,0,0,0,0,0,0,0,0,0,0,0,0,0,0,0,0,0,0,0,0,0,0,0,0,0,0,0,0,0,0,0,0,0,0,0,0,0,0,0,0,0,0,0,0,0,0,0,0,0,0,0,0,0,0,0,0,0,0,0,0,0,0,0,0,0,0,0,0,0,0,0,0,0,0,0,0,0,0,0,0,0,0,0,0],"sum_hessian":[2.91912E5,1.37291E5,1.54621E5,3.7014E4,1.00277E5,6.567E3,1.48054E5,3.49E3,3.3524E4,6.03E4,3.9977E4,1.48E3,5.087E3,1.22562E5,2.5492E4,3.018E3,4.72E2,2.7924E4,5.6E3,1.2453E4,4.7847E4,9.319E3,3.0658E4,1.298E3,1.82E2,4.394E3,6.93E2,8.1255E4,4.1307E4,2.4725E4,7.67E2,1.84E2,2.834E3,1.52E2,3.2E2,2.6992E4,9.32E2,3.463E3,2.137E3,7.577E3,4.876E3,3.9686E4,8.161E3,3.701E3,5.618E3,2.2579E4,8.079E3,4.31E2,8.67E2,1.1E1,1.71E2,6.14E2,3.78E3,1.75E2,5.18E2,3.8019E4,4.3236E4,1.9888E4,2.1419E4,5.478E3,1.9247E4,5.35E2,2.32E2,2.2E1,1.62E2,2.111E3,7.23E2,1.1E1,1.41E2,3.05E2,1.5E1,1.6016E4,1.0976E4,3.65E2,5.67E2,1.844E3,1.619E3,5.6E2,1.577E3,1.596E3,5.981E3,3.73E3,1.146E3,5.177E3,3.4509E4,5.373E3,2.788E3,4.72E2,3.229E3,3.107E3,2.511E3,3.243E3,1.9336E4,5.667E3,2.412E3,9.4E1,3.37E2,7.61E2,1.06E2,4E0,7E0,2.3E1,1.48E2,3.25E2,2.89E2,3.248E3,5.32E2,1.65E2,1E1,2.42E2,2.76E2,1.3628E4,2.4391E4,2.8233E4,1.5003E4,1.6049E4,3.839E3,1.69E4,4.519E3,2.64E3,2.838E3,1.5923E4,3.324E3,4.08E2,1.27E2,1.63E2,6.9E1],"tree_param":{"num_deleted":"0","num_feature":"63","num_nodes":"127","size_leaf_vector":"1"}},{"base_weights":[-3.7278476E-6,-2.3402893E-3,1.3021414E-2,-7.0935325E-3,4.8850104E-3,1.7577458E-2,4.467654E-3,-2.8047843E-3,-1.3403053E-2,3.4372227E-3,2.1678912E-2,2.5340663E-2,1.2727082E-2,8.954406E-3,-2.417885E-2,1.9684533E-2,-5.4422696E-3,3.8385042E-4,-1.8251736E-2,1.7100993E-3,1.901425E-2,1.4354167E-2,3.280343E-2,3.3703126E-2,2.0552805E-2,1.6983582E-2,-6.8752803E-3,2.1353368E-2,6.375482E-3,-1.421147E-2,-4.3656465E-2,3.669278E-2,8.485273E-3,-1.5402476E-2,-4.8746765E-4,2.5136866E-2,-2.976307E-3,-1.2991633E-2,-3.464518E-2,1.0122661E-2,-1.3050749E-3,1.654519E-2,4.2021997E-2,2.7750945E-2,9.111666E-3,4.645428E-2,2.4082758E-2,4.9183883E-2,2.2017717E-2,7.2422205E-3,2.220281E-2,2.7704056E-2,9.618244E-3,-2.7935518E-2,2.9307858E-3,4.9612444E-2,1.912877E-2,9.477537E-3,-1.0109826E-2,1.0876646E-2,-2.2779197E-2,-2.7904384E-2,-7.198699E-2,7.002071E-2,1.0328186E-2,5.2146874E-3,-7.539361E-3,-3.8244925E-2,-4.4093276E-3,6.818343E-4,-4.238072E-3,1.3524059E-2,5.344132E-3,2.9449807E-3,-4.4594486E-3,9.317513E-3,-5.841465E-3,-6.9938535E-3,-1.4414637E-2,3.9137895E-3,-4.89362E-3,5.6703255E-4,-3.477757E-3,5.220569E-3,-1.0453954E-2,7.839811E-3,1.6631214E-2,1.2617299E-2,5.9475703E-4,5.184837E-3,8.177198E-4,1.1034483E-2,2.0610405E-2,4.1128043E-3,9.027195E-3,4.6596743E-2,1.3592306E-2,1.1597047E-2,5.84197E-4,3.3534614E-3,-2.2029215E-3,7.801945E-3,5.172771E-3,2.2061879E-2,7.3928568E-3,-3.4637464E-4,5.1055923E-3,-6.6815373E-3,-1.6688129E-2,2.246205E-3,-8.677703E-3,2.4409369E-2,1.0364234E-2,9.675135E-3,4.06875E-3,6.859913E-3,1.8066545E-3,1.5824779E-3,-4.7536613E-3,3.8679718E-4,1.1539661E-2,-1.4580157E-2,-3.4721647E-3,-5.811656E-3,-1.5999313E-2,-1.9802608E-2,-3.5808433E-2],"categories":[],"categories_nodes":[],"categories_segments":[],"categories_sizes":[],"default_left":[0,0,0,0,0,0,0,0,0,0,0,0,0,0,0,0,0,0,0,0,0,0,0,0,0,0,0,0,0,0,0,0,0,0,0,0,0,0,0,0,0,0,0,0,0,0,0,0,0,0,0,0,0,0,0,0,0,0,0,0,0,0,0,0,0,0,0,0,0,0,0,0,0,0,0,0,0,0,0,0,0,0,0,0,0,0,0,0,0,0,0,0,0,0,0,0,0,0,0,0,0,0,0,0,0,0,0,0,0,0,0,0,0,0,0,0,0,0,0,0,0,0,0,0,0,0,0],"id":11,"left_children":[1,3,5,7,9,11,13,15,17,19,21,23,25,27,29,31,33,35,37,39,41,43,45,47,49,51,53,55,57,59,61,63,65,67,69,71,73,75,77,79,81,83,85,87,89,91,93,95,97,99,101,103,105,107,109,111,113,115,117,119,121,123,125,-1,-1,-1,-1,-1,-1,-1,-1,-1,-1,-1,-1,-1,-1,-1,-1,-1,-1,-1,-1,-1,-1,-1,-1,-1,-1,-1,-1,-1,-1,-1,-1,-1,-1,-1,-1,-1,-1,-1,-1,-1,-1,-1,-1,-1,-1,-1,-1,-1,-1,-1,-1,-1,-1,-1,-1,-1,-1,-1,-1,-1,-1,-1,-1],"loss_changes":[8.884124E0,8.500524E0,1.7302866E0,4.039931E0,2.3879745E0,1.0905275E0,1.9836875E0,5.2722235E0,4.0386486E0,2.4326577E0,6.3469887E-1,4.452939E-1,1.4879735E0,4.265195E-1,4.0513384E-1,1.7768645E0,3.92605E0,1.3075706E0,3.8537407E0,2.0647264E0,5.119927E-1,3.299809E-1,3.6720538E-1,7.322812E-1,1.554656E-1,1.1565757E0,6.572224E-1,1.4345205E-1,5.650211E-1,2.9773593E-1,3.135004E-1,1.6426296E0,1.6833954E0,2.0855465E0,2.0001702E0,2.7361906E-1,2.1053588E0,9.659908E0,1.647995E0,1.6598847E0,1.9697078E0,3.5952044E-1,1.8485391E-1,4.8728728E-1,1.7637432E-1,2.5677538E-1,1.17376685E-1,7.1005726E-1,7.7202487E-1,4.503212E-2,1.1848998E-1,8.3528805E-1,6.9249517E-1,1.573239E-1,3.154954E-1,7.707274E-2,1.5520835E-1,4.300176E-1,1.5450795E-1,9.3320176E-2,2.9803234E-1,9.789392E-2,6.349242E-2,0E0,0E0,0E0,0E0,0E0,0E0,0E0,0E0,0E0,0E0,0E0,0E0,0E0,0E0,0E0,0E0,0E0,0E0,0E0,0E0,0E0,0E0,0E0,0E0,0E0,0E0,0E0,0E0,0E0,0E0,0E0,0E0,0E0,0E0,0E0,0E0,0E0,0E0,0E0,0E0,0E0,0E0,0E0,0E0,0E0,0E0,0E0,0E0,0E0,0E0,0E0,0E0,0E0,0E0,0E0,0E0,0E0,0E0,0E0,0E0,0E0,0E0,0E0,0E0],"parents":[2147483647,0,0,1,1,2,2,3,3,4,4,5,5,6,6,7,7,8,8,9,9,10,10,11,11,12,12,13,13,14,14,15,15,16,16,17,17,18,18,19,19,20,20,21,21,22,22,23,23,24,24,25,25,26,26,27,27,28,28,29,29,30,30,31,31,32,32,33,33,34,34,35,35,36,36,37,37,38,38,39,39,40,40,41,41,42,42,43,43,44,44,45,45,46,46,47,47,48,48,49,49,50,50,51,51,52,52,53,53,54,54,55,55,56,56,57,57,58,58,59,59,60,60,61,61,62,62],"right_children":[2,4,6,8,10,12,14,16,18,20,22,24,26,28,30,32,34,36,38,40,42,44,46,48,50,52,54,56,58,60,62,64,66,68,70,72,74,76,78,80,82,84,86,88,90,92,94,96,98,100,102,104,106,108,110,112,114,116,118,120,122,124,126,-1,-1,-1,-1,-1,-1,-1,-1,-1,-1,-1,-1,-1,-1,-1,-1,-1,-1,-1,-1,-1,-1,-1,-1,-1,-1,-1,-1,-1,-1,-1,-1,-1,-1,-1,-1,-1,-1,-1,-1,-1,-1,-1,-1,-1,-1,-1,-1,-1,-1,-1,-1,-1,-1,-1,-1,-1,-1,-1,-1,-1,-1,-1,-1],"split_conditions":[4.8E1,1E0,2E0,2E0,1.539E3,1.7E1,1.8E1,1.3E1,9E0,1.551E3,3.851E3,2.031E3,2E0,6E0,2.1E1,3E0,1E0,4E0,3E0,1E0,1.672E3,1.666E3,2.506E3,3E0,1.921E1,2.9E1,1E0,4E0,4E0,6.429E2,6.864E2,6.675E2,1E1,1.6E1,2E0,2E0,4E0,1.4E1,1.1E1,5.7E1,2.8E1,1E0,1.483E3,2.9E1,1.4E1,1.662E3,1E0,4.978E2,1E1,3E0,8E0,1.525E3,1E0,2.2E1,2.2E1,2.237E3,4E0,9E0,1.372E3,2E0,1E0,2.4E1,2.4E1,7.002071E-2,1.0328186E-2,5.2146874E-3,-7.539361E-3,-3.8244925E-2,-4.4093276E-3,6.818343E-4,-4.238072E-3,1.3524059E-2,5.344132E-3,2.9449807E-3,-4.4594486E-3,9.317513E-3,-5.841465E-3,-6.9938535E-3,-1.4414637E-2,3.9137895E-3,-4.89362E-3,5.6703255E-4,-3.477757E-3,5.220569E-3,-1.0453954E-2,7.839811E-3,1.6631214E-2,1.2617299E-2,5.9475703E-4,5.184837E-3,8.177198E-4,1.1034483E-2,2.0610405E-2,4.1128043E-3,9.027195E-3,4.6596743E-2,1.3592306E-2,1.1597047E-2,5.84197E-4,3.3534614E-3,-2.2029215E-3,7.801945E-3,5.172771E-3,2.2061879E-2,7.3928568E-3,-3.4637464E-4,5.1055923E-3,-6.6815373E-3,-1.6688129E-2,2.246205E-3,-8.677703E-3,2.4409369E-2,1.0364234E-2,9.675135E-3,4.06875E-3,6.859913E-3,1.8066545E-3,1.5824779E-3,-4.7536613E-3,3.8679718E-4,1.1539661E-2,-1.4580157E-2,-3.4721647E-3,-5.811656E-3,-1.5999313E-2,-1.9802608E-2,-3.5808433E-2],"split_indices":[28,0,9,3,30,6,6,6,6,39,42,37,8,6,6,8,27,6,8,3,39,42,37,8,10,6,15,8,8,42,37,42,6,29,8,9,8,6,6,6,6,35,11,6,6,30,27,37,6,8,41,42,15,6,6,37,6,6,11,31,15,6,6,0,0,0,0,0,0,0,0,0,0,0,0,0,0,0,0,0,0,0,0,0,0,0,0,0,0,0,0,0,0,0,0,0,0,0,0,0,0,0,0,0,0,0,0,0,0,0,0,0,0,0,0,0,0,0,0,0,0,0,0,0,0,0,0],"split_type":[0,0,0,0,0,0,0,0,0,0,0,0,0,0,0,0,0,0,0,0,0,0,0,0,0,0,0,0,0,0,0,0,0,0,0,0,0,0,0,0,0,0,0,0,0,0,0,0,0,0,0,0,0,0,0,0,0,0,0,0,0,0,0,0,0,0,0,0,0,0,0,0,0,0,0,0,0,0,0,0,0,0,0,0,0,0,0,0,0,0,0,0,0,0,0,0,0,0,0,0,0,0,0,0,0,0,0,0,0,0,0,0,0,0,0,0,0,0,0,0,0,0,0,0,0,0,0],"sum_hessian":[2.91912E5,2.47512E5,4.44E4,1.49296E5,9.8216E4,2.8969E4,1.5431E4,8.8882E4,6.0414E4,9.0422E4,7.794E3,1.1138E4,1.7831E4,1.3342E4,2.089E3,9.329E3,7.9553E4,1.5719E4,4.4695E4,8.1398E4,9.024E3,4.701E3,3.093E3,4.053E3,7.085E3,1.465E4,3.181E3,2.296E3,1.1046E4,1.383E3,7.06E2,3.703E3,5.626E3,2.6427E4,5.3126E4,1.878E3,1.3841E4,3.3839E4,1.0856E4,2.1476E4,5.9922E4,8.151E3,8.73E2,1.321E3,3.38E3,1.204E3,1.889E3,1.742E3,2.311E3,7.82E2,6.303E3,5.965E3,8.685E3,1.01E3,2.171E3,1.66E2,2.13E3,9.297E3,1.749E3,3.52E2,1.031E3,4.55E2,2.51E2,4.1E1,3.662E3,4.449E3,1.177E3,1.64E2,2.6263E4,4.4185E4,8.941E3,5.03E2,1.375E3,6.667E3,7.174E3,4.339E3,2.95E4,5.884E3,4.972E3,1.9338E4,2.138E3,4.5722E4,1.42E4,8.018E3,1.33E2,4.01E2,4.72E2,8.49E2,4.72E2,1.482E3,1.898E3,8.41E2,3.63E2,6.94E2,1.195E3,6E1,1.682E3,1.263E3,1.048E3,6.16E2,1.66E2,3.565E3,2.738E3,3.72E2,5.593E3,3.537E3,5.148E3,8.4E2,1.7E2,1.9E3,2.71E2,5.2E1,1.14E2,6.33E2,1.497E3,1.906E3,7.391E3,4.75E2,1.274E3,2.62E2,9E1,3.11E2,7.2E2,3.42E2,1.13E2,2.25E2,2.6E1],"tree_param":{"num_deleted":"0","num_feature":"63","num_nodes":"127","size_leaf_vector":"1"}},{"base_weights":[-2.0180132E-6,2.1993178E-3,-9.361576E-3,-1.0151152E-3,8.499764E-3,1.4507617E-2,-1.1229221E-2,2.9698885E-3,-6.964957E-3,-3.0996846E-2,9.040231E-3,3.5574175E-2,5.1453738E-3,-1.383828E-2,5.798719E-3,5.667435E-3,-5.187039E-3,-1.29619995E-2,2.6759896E-3,-4.2486142E-2,1.586103E-2,1.4314497E-2,5.5862153E-3,6.7553714E-2,1.7422363E-2,1.9931654E-2,-1.098293E-2,-1.139114E-2,-3.2817323E-2,1.243434E-2,-4.467682E-3,1.0155728E-2,-1.9311665E-3,-2.404519E-3,-2.5256442E-2,5.625456E-4,-1.7108103E-2,-1.6471179E-4,2.0557825E-2,5.2748197E-3,-5.3651486E-2,7.385097E-2,-7.897107E-3,1.323988E-2,3.705241E-2,1.2965157E-4,1.2200226E-2,6.483486E-2,2.2996739E-1,-4.927253E-2,1.9123236E-2,1.5400478E-2,4.3688267E-2,-1.4351253E-2,3.4755263E-2,-4.197035E-3,-1.7703008E-2,-3.502753E-2,4.6852073E-3,2.5677761E-2,3.4562577E-3,-9.093373E-3,1.6902873E-2,6.078292E-3,1.4520491E-3,2.2570502E-3,-4.2242943E-3,-1.0653911E-3,8.319938E-3,-6.205308E-3,-1.3865513E-2,1.4593584E-2,-1.7007429E-3,-3.4828826E-3,-1.1854111E-2,-1.0795199E-3,4.414834E-3,9.269932E-3,2.982939E-3,2.3408262E-2,-1.9390661E-3,-1.7010093E-2,5.6222305E-2,2.8329724E-2,9.200764E-4,3.5995465E-2,-5.035404E-3,4.776021E-3,1.5370613E-3,9.0430654E-4,1.1586113E-2,-1.2569558E-3,2.2985202E-3,3.1945228E-3,9.969538E-3,2.6457412E-2,1.4644065E-2,1.04887575E-1,3.3653762E-2,-4.575161E-2,1.4716445E-2,-3.6978695E-4,6.9931424E-3,8.697232E-3,1.1334736E-3,4.1461304E-2,1.0824736E-2,-2.6767505E-3,-1.43911475E-2,2.5665981E-3,1.8942773E-2,6.6595203E-3,-4.428145E-3,-1.772328E-3,-1.016853E-2,-1.1344817E-2,-1.4804461E-3,-2.1349069E-2,2.659857E-3,1.4235541E-2,3.5192787E-3,4.7815028E-3,-4.8909183E-3,-4.6874248E-4,-5.1432378E-3,1.1676524E-3,1.051E-2],"categories":[],"categories_nodes":[],"categories_segments":[],"categories_sizes":[],"default_left":[0,0,0,0,0,0,0,0,0,0,0,0,0,0,0,0,0,0,0,0,0,0,0,0,0,0,0,0,0,0,0,0,0,0,0,0,0,0,0,0,0,0,0,0,0,0,0,0,0,0,0,0,0,0,0,0,0,0,0,0,0,0,0,0,0,0,0,0,0,0,0,0,0,0,0,0,0,0,0,0,0,0,0,0,0,0,0,0,0,0,0,0,0,0,0,0,0,0,0,0,0,0,0,0,0,0,0,0,0,0,0,0,0,0,0,0,0,0,0,0,0,0,0,0,0,0,0],"id":12,"left_children":[1,3,5,7,9,11,13,15,17,19,21,23,25,27,29,31,33,35,37,39,41,43,45,47,49,51,53,55,57,59,61,63,65,67,69,71,73,75,77,79,81,83,85,87,89,91,93,95,97,99,101,103,105,107,109,111,113,115,117,119,121,123,125,-1,-1,-1,-1,-1,-1,-1,-1,-1,-1,-1,-1,-1,-1,-1,-1,-1,-1,-1,-1,-1,-1,-1,-1,-1,-1,-1,-1,-1,-1,-1,-1,-1,-1,-1,-1,-1,-1,-1,-1,-1,-1,-1,-1,-1,-1,-1,-1,-1,-1,-1,-1,-1,-1,-1,-1,-1,-1,-1,-1,-1,-1,-1,-1],"loss_changes":[6.014459E0,4.786249E0,2.4780512E0,3.7104445E0,1.7045951E0,7.954437E-1,2.2903323E0,2.062237E0,3.629276E0,5.8103025E-1,1.4347768E0,7.192069E-1,6.6652536E-1,2.0757818E0,4.6670458E-1,2.4020174E0,1.3006463E0,2.1700225E0,1.2228384E0,4.62093E-1,2.9404032E-1,7.61086E-1,1.7177272E0,1.8335867E-1,9.089978E-2,1.562742E-1,2.0647836E-1,1.7980003E0,4.2330885E-1,4.9465632E-1,2.6606983E-1,2.3782449E0,3.00448E0,7.0712054E-1,2.708454E-1,2.7212758E0,3.6485157E0,1.0615234E0,3.6195564E-1,1.4141409E-1,5.2655816E-1,9.0034336E-2,1.7477107E-1,6.473627E-1,7.492232E-2,8.4857386E-1,7.018666E-1,1.6146648E-1,5.94393E-2,2.104933E-1,6.600049E-2,1.9353664E-1,1.6251037E-1,2.2698006E-1,6.788441E-2,5.1605754E0,4.0281553E0,4.043646E-1,9.1010824E-2,5.099275E-1,6.121674E-1,1.340854E-1,1.1285494E-1,0E0,0E0,0E0,0E0,0E0,0E0,0E0,0E0,0E0,0E0,0E0,0E0,0E0,0E0,0E0,0E0,0E0,0E0,0E0,0E0,0E0,0E0,0E0,0E0,0E0,0E0,0E0,0E0,0E0,0E0,0E0,0E0,0E0,0E0,0E0,0E0,0E0,0E0,0E0,0E0,0E0,0E0,0E0,0E0,0E0,0E0,0E0,0E0,0E0,0E0,0E0,0E0,0E0,0E0,0E0,0E0,0E0,0E0,0E0,0E0,0E0,0E0,0E0,0E0],"parents":[2147483647,0,0,1,1,2,2,3,3,4,4,5,5,6,6,7,7,8,8,9,9,10,10,11,11,12,12,13,13,14,14,15,15,16,16,17,17,18,18,19,19,20,20,21,21,22,22,23,23,24,24,25,25,26,26,27,27,28,28,29,29,30,30,31,31,32,32,33,33,34,34,35,35,36,36,37,37,38,38,39,39,40,40,41,41,42,42,43,43,44,44,45,45,46,46,47,47,48,48,49,49,50,50,51,51,52,52,53,53,54,54,55,55,56,56,57,57,58,58,59,59,60,60,61,61,62,62],"right_children":[2,4,6,8,10,12,14,16,18,20,22,24,26,28,30,32,34,36,38,40,42,44,46,48,50,52,54,56,58,60,62,64,66,68,70,72,74,76,78,80,82,84,86,88,90,92,94,96,98,100,102,104,106,108,110,112,114,116,118,120,122,124,126,-1,-1,-1,-1,-1,-1,-1,-1,-1,-1,-1,-1,-1,-1,-1,-1,-1,-1,-1,-1,-1,-1,-1,-1,-1,-1,-1,-1,-1,-1,-1,-1,-1,-1,-1,-1,-1,-1,-1,-1,-1,-1,-1,-1,-1,-1,-1,-1,-1,-1,-1,-1,-1,-1,-1,-1,-1,-1,-1,-1,-1,-1,-1,-1],"split_conditions":[1E0,6E0,7E0,1.517E3,2.4E1,4E0,1.508E3,2E0,5.021E3,5E0,1.551E3,2.461E3,5E0,3E0,2E0,3E1,1.9E1,1E0,9.165E3,9E0,1E0,1.521E3,5.231E3,1.849E3,2.3E1,1.526E3,4.86E3,2.5E1,6E0,2.4E1,6.465E3,2E0,1E0,1.485E3,2.3E1,4.3E1,3E1,1.507E3,2.553E3,1.306E3,3.7047768E1,3.435E3,1.2E1,2E0,8.187E0,8E0,7.507E3,6E0,2E0,3.9E-3,3.379E1,3E0,1E0,1.891E3,1E0,2E0,1E0,4.461E2,1.0374337E1,2E0,3.59E0,1.5E1,1.564E3,6.078292E-3,1.4520491E-3,2.2570502E-3,-4.2242943E-3,-1.0653911E-3,8.319938E-3,-6.205308E-3,-1.3865513E-2,1.4593584E-2,-1.7007429E-3,-3.4828826E-3,-1.1854111E-2,-1.0795199E-3,4.414834E-3,9.269932E-3,2.982939E-3,2.3408262E-2,-1.9390661E-3,-1.7010093E-2,5.6222305E-2,2.8329724E-2,9.200764E-4,3.5995465E-2,-5.035404E-3,4.776021E-3,1.5370613E-3,9.0430654E-4,1.1586113E-2,-1.2569558E-3,2.2985202E-3,3.1945228E-3,9.969538E-3,2.6457412E-2,1.4644065E-2,1.04887575E-1,3.3653762E-2,-4.575161E-2,1.4716445E-2,-3.6978695E-4,6.9931424E-3,8.697232E-3,1.1334736E-3,4.1461304E-2,1.0824736E-2,-2.6767505E-3,-1.43911475E-2,2.5665981E-3,1.8942773E-2,6.6595203E-3,-4.428145E-3,-1.772328E-3,-1.016853E-2,-1.1344817E-2,-1.4804461E-3,-2.1349069E-2,2.659857E-3,1.4235541E-2,3.5192787E-3,4.7815028E-3,-4.8909183E-3,-4.6874248E-4,-5.1432378E-3,1.1676524E-3,1.051E-2],"split_indices":[26,38,6,11,28,8,30,9,42,1,11,37,6,3,3,6,6,8,42,6,3,32,42,30,28,39,32,6,1,6,42,8,8,32,6,6,6,30,37,11,43,37,29,9,2,38,32,6,1,32,10,3,1,11,0,8,8,2,43,8,10,6,30,0,0,0,0,0,0,0,0,0,0,0,0,0,0,0,0,0,0,0,0,0,0,0,0,0,0,0,0,0,0,0,0,0,0,0,0,0,0,0,0,0,0,0,0,0,0,0,0,0,0,0,0,0,0,0,0,0,0,0,0,0,0,0,0],"split_type":[0,0,0,0,0,0,0,0,0,0,0,0,0,0,0,0,0,0,0,0,0,0,0,0,0,0,0,0,0,0,0,0,0,0,0,0,0,0,0,0,0,0,0,0,0,0,0,0,0,0,0,0,0,0,0,0,0,0,0,0,0,0,0,0,0,0,0,0,0,0,0,0,0,0,0,0,0,0,0,0,0,0,0,0,0,0,0,0,0,0,0,0,0,0,0,0,0,0,0,0,0,0,0,0,0,0,0,0,0,0,0,0,0,0,0,0,0,0,0,0,0,0,0,0,0,0,0],"sum_hessian":[2.91912E5,2.36329E5,5.5583E4,1.5649E5,7.9839E4,4.033E3,5.155E4,9.372E4,6.277E4,1.077E3,7.8762E4,1.24E3,2.793E3,4.4701E4,6.849E3,7.0429E4,2.3291E4,3.8698E4,2.4072E4,8.65E2,2.12E2,3.1167E4,4.7595E4,4.48E2,7.92E2,1.457E3,1.336E3,3.9597E4,5.104E3,4.16E3,2.689E3,4.4276E4,2.6153E4,2.0456E4,2.835E3,9.08E3,2.9618E4,2.0773E4,3.299E3,1.64E2,7.01E2,6.1E1,1.51E2,2.9762E4,1.405E3,2.608E4,2.1515E4,4.42E2,6E0,1.9E1,7.73E2,1.225E3,2.32E2,1.245E3,9.1E1,1.8506E4,2.1091E4,4.82E3,2.84E2,1.68E3,2.48E3,2.211E3,4.78E2,1.5261E4,2.9015E4,1.4708E4,1.1445E4,1.9707E4,7.49E2,2.329E3,5.06E2,1.041E3,8.039E3,2.3783E4,5.835E3,1.6879E4,3.894E3,1.67E3,1.629E3,2.2E1,1.42E2,6.93E2,8E0,4.7E1,1.4E1,9E0,1.42E2,2.2373E4,7.389E3,6.2E1,1.343E3,1.6575E4,9.505E3,2.0038E4,1.477E3,1.78E2,2.64E2,2E0,4E0,9E0,1E1,1.32E2,6.41E2,5.64E2,6.61E2,1.6E1,2.16E2,1.073E3,1.72E2,4.8E1,4.3E1,5.289E3,1.3217E4,1.2203E4,8.888E3,4.411E3,4.09E2,1.4E1,2.7E2,6.55E2,1.025E3,1.52E3,9.6E2,1.143E3,1.068E3,2.79E2,1.99E2],"tree_param":{"num_deleted":"0","num_feature":"63","num_nodes":"127","size_leaf_vector":"1"}},{"base_weights":[-1.6530618E-7,-1.1720332E-2,1.4986882E-3,-8.4008295E-3,-2.8132116E-2,2.2221145E-3,-2.1517685E-2,1.6056446E-2,-1.1698955E-2,-6.472164E-2,-2.3341907E-2,1.17357485E-2,1.2998858E-4,-1.5927745E-2,-3.697451E-2,-1.7161256E-1,1.884468E-2,-7.878277E-3,-3.4307007E-2,-5.085961E-2,-9.120635E-2,-1.0979896E-2,-2.8583115E-2,4.363594E-2,5.3636907E-3,2.9504702E-3,-2.0266334E-2,-9.697757E-3,-3.4064304E-2,-3.0940296E-2,-5.3015076E-2,-2.191041E-1,5.852896E-2,7.688482E-2,9.3807345E-3,4.92996E-3,-1.373333E-2,-1.49954315E-2,-4.9141023E-2,-7.735925E-2,-3.714753E-2,-9.425126E-2,8.634436E-2,5.6330267E-2,-1.6959317E-2,-1.7259093E-2,-3.4373745E-2,8.583124E-2,2.9830774E-2,4.4944588E-2,3.2118878E-3,1.31705785E-2,-7.977806E-4,-6.472733E-3,-2.9531458E-2,2.74662E-2,-1.1530098E-2,-2.6303349E-2,-5.533542E-2,-4.6240844E-2,-2.4240585E-2,-3.2324158E-2,-6.718271E-2,-3.5125587E-2,-9.45806E-2,-2.5475254E-2,3.3493422E-2,-3.4744892E-2,2.6245825E-2,9.019032E-3,-2.5078529E-3,1.0839532E-2,-1.9928615E-3,-1.2600856E-3,-1.1835202E-2,1.9395068E-2,-5.304989E-3,-6.330913E-2,-1.3760894E-2,6.552308E-2,-2.4918938E-2,-1.7373836E-2,-4.8800707E-3,-2.887336E-2,5.1042266E-2,2.6463004E-2,-1.5470341E-2,-2.804441E-3,-1.22734895E-2,-6.0567823E-3,3.1140903E-3,-9.63E-3,-2.0471858E-2,7.70078E-2,2.4023578E-2,1.409989E-2,6.922165E-3,3.0545065E-2,6.52302E-3,-2.197178E-3,2.725887E-3,1.5495083E-2,2.467291E-3,1.2698611E-3,-8.490658E-3,1.1508642E-3,-8.294964E-3,-7.356661E-3,-1.9627783E-2,2.1898385E-2,2.2182525E-3,-5.754684E-3,-9.4047067E-4,-6.283141E-3,-1.7591354E-2,-2.6531631E-2,-1.407334E-2,-8.169418E-3,-1.6446915E-2,-6.336765E-3,-1.9858265E-2,-1.05841225E-2,6.193779E-3,-1.799286E-2,-3.3831697E-2],"categories":[1,2],"categories_nodes":[39],"categories_segments":[0],"categories_sizes":[2],"default_left":[0,0,0,0,0,0,0,0,0,0,0,0,0,0,0,0,0,0,0,0,0,0,0,0,0,0,0,0,0,0,0,0,0,0,0,0,0,0,0,1,0,0,0,0,0,0,0,0,0,0,0,0,0,0,0,0,0,0,0,0,0,0,0,0,0,0,0,0,0,0,0,0,0,0,0,0,0,0,0,0,0,0,0,0,0,0,0,0,0,0,0,0,0,0,0,0,0,0,0,0,0,0,0,0,0,0,0,0,0,0,0,0,0,0,0,0,0,0,0,0,0,0,0,0,0],"id":13,"left_children":[1,3,5,7,9,11,13,15,17,19,21,23,25,27,29,31,33,35,37,39,41,43,45,47,49,51,53,55,57,59,61,63,65,67,69,71,73,75,77,79,81,83,-1,85,87,89,91,93,95,97,99,101,103,105,107,109,111,113,115,117,119,121,123,-1,-1,-1,-1,-1,-1,-1,-1,-1,-1,-1,-1,-1,-1,-1,-1,-1,-1,-1,-1,-1,-1,-1,-1,-1,-1,-1,-1,-1,-1,-1,-1,-1,-1,-1,-1,-1,-1,-1,-1,-1,-1,-1,-1,-1,-1,-1,-1,-1,-1,-1,-1,-1,-1,-1,-1,-1,-1,-1,-1,-1,-1],"loss_changes":[5.1279993E0,1.8029623E0,4.3094854E0,2.2210057E0,9.74401E-1,4.994419E0,6.808691E-1,1.7153578E0,2.0953484E0,2.3179412E-1,3.1878614E-1,9.194475E0,1.1833227E1,6.543368E-1,2.0104265E-1,5.374528E-1,1.7707353E0,1.5565451E0,1.0039067E0,1.5155649E-1,2.810254E-1,5.9178996E-1,2.261591E-1,4.384345E0,3.2111168E0,6.9224873E0,3.193388E0,2.9408732E-1,2.43034E-1,1.5510333E-1,1.6521192E-1,3.5551047E-1,7.805403E-2,9.33512E-1,1.0180769E0,2.3516798E0,3.4919584E0,3.2761016E-1,1.0405197E0,2.6107424E-1,1.2133077E-1,1.3178933E-1,0E0,4.1732022E-1,2.4554753E-1,9.512803E-2,1.7391324E-1,1.8037176E0,6.573777E-1,2.562903E0,2.2133725E0,9.228926E0,1.8294477E1,2.1924162E0,2.6861162E0,1.8497129E-1,2.641012E-1,1.8714702E-1,1.0600591E-1,7.404232E-2,1.3752514E-1,3.737107E-2,1.0428357E-1,0E0,0E0,0E0,0E0,0E0,0E0,0E0,0E0,0E0,0E0,0E0,0E0,0E0,0E0,0E0,0E0,0E0,0E0,0E0,0E0,0E0,0E0,0E0,0E0,0E0,0E0,0E0,0E0,0E0,0E0,0E0,0E0,0E0,0E0,0E0,0E0,0E0,0E0,0E0,0E0,0E0,0E0,0E0,0E0,0E0,0E0,0E0,0E0,0E0,0E0,0E0,0E0,0E0,0E0,0E0,0E0,0E0,0E0,0E0,0E0,0E0,0E0],"parents":[2147483647,0,0,1,1,2,2,3,3,4,4,5,5,6,6,7,7,8,8,9,9,10,10,11,11,12,12,13,13,14,14,15,15,16,16,17,17,18,18,19,19,20,20,21,21,22,22,23,23,24,24,25,25,26,26,27,27,28,28,29,29,30,30,31,31,32,32,33,33,34,34,35,35,36,36,37,37,38,38,39,39,40,40,41,41,43,43,44,44,45,45,46,46,47,47,48,48,49,49,50,50,51,51,52,52,53,53,54,54,55,55,56,56,57,57,58,58,59,59,60,60,61,61,62,62],"right_children":[2,4,6,8,10,12,14,16,18,20,22,24,26,28,30,32,34,36,38,40,42,44,46,48,50,52,54,56,58,60,62,64,66,68,70,72,74,76,78,80,82,84,-1,86,88,90,92,94,96,98,100,102,104,106,108,110,112,114,116,118,120,122,124,-1,-1,-1,-1,-1,-1,-1,-1,-1,-1,-1,-1,-1,-1,-1,-1,-1,-1,-1,-1,-1,-1,-1,-1,-1,-1,-1,-1,-1,-1,-1,-1,-1,-1,-1,-1,-1,-1,-1,-1,-1,-1,-1,-1,-1,-1,-1,-1,-1,-1,-1,-1,-1,-1,-1,-1,-1,-1,-1,-1,-1,-1],"split_conditions":[2.7E1,4.4E1,6.2E1,1E0,2.5E1,1E0,9.787E2,9E0,2.8E1,1.422E3,1.222E3,4.2E1,3E1,7.5E1,6.7E1,2.04E2,1.7E3,2E0,9.069E2,1.8E1,3.467E1,4.9E1,1.422E3,2.251E3,9.405E2,2E0,6.675E2,1.468E2,3.8E2,1E0,1.582E3,1.7E1,7.275E2,1.3E1,3.9E1,2.1E1,1.5E1,1.24E3,2.1E1,NaN,5.017E2,5E0,